digraph Tree {
node [shape=box] ;
0 [label="BuildingArea <= 186.18\nmse = 1058615739808.045\nsamples = 438\nvalue = 1478513.9"] ;
1 [label="BuildingArea <= 105.95\nmse = 270101864281.511\nsamples = 222\nvalue = 910078.829"] ;
0 -> 1 [labeldistance=2.5, labelangle=45, headlabel="True"] ;
2 [label="BuildingArea <= 30.3\nmse = 134668828888.889\nsamples = 105\nvalue = 669433.333"] ;
1 -> 2 ;
3 [label="BuildingArea <= 29.0\nmse = 400886722222.222\nsamples = 12\nvalue = 1111333.333"] ;
2 -> 3 ;
4 [label="BuildingArea <= 20.5\nmse = 92876082644.628\nsamples = 11\nvalue = 941909.091"] ;
3 -> 4 ;
5 [label="BuildingArea <= 7.0\nmse = 70148984375.0\nsamples = 8\nvalue = 832625.0"] ;
4 -> 5 ;
6 [label="BuildingArea <= 3.5\nmse = 67657555555.556\nsamples = 3\nvalue = 1044666.667"] ;
5 -> 6 ;
7 [label="BuildingArea <= 2.5\nmse = 23562250000.0\nsamples = 2\nvalue = 883500.0"] ;
6 -> 7 ;
8 [label="mse = 0.0\nsamples = 1\nvalue = 1037000.0"] ;
7 -> 8 ;
9 [label="mse = 0.0\nsamples = 1\nvalue = 730000.0"] ;
7 -> 9 ;
10 [label="mse = 0.0\nsamples = 1\nvalue = 1367000.0"] ;
6 -> 10 ;
11 [label="BuildingArea <= 18.5\nmse = 28480640000.0\nsamples = 5\nvalue = 705400.0"] ;
5 -> 11 ;
12 [label="BuildingArea <= 10.5\nmse = 26204687500.0\nsamples = 4\nvalue = 748750.0"] ;
11 -> 12 ;
13 [label="mse = 0.0\nsamples = 1\nvalue = 570000.0"] ;
12 -> 13 ;
14 [label="BuildingArea <= 15.5\nmse = 20738888888.889\nsamples = 3\nvalue = 808333.333"] ;
12 -> 14 ;
15 [label="BuildingArea <= 12.0\nmse = 21756250000.0\nsamples = 2\nvalue = 752500.0"] ;
14 -> 15 ;
16 [label="mse = 0.0\nsamples = 1\nvalue = 900000.0"] ;
15 -> 16 ;
17 [label="mse = 0.0\nsamples = 1\nvalue = 605000.0"] ;
15 -> 17 ;
18 [label="mse = 0.0\nsamples = 1\nvalue = 920000.0"] ;
14 -> 18 ;
19 [label="mse = 0.0\nsamples = 1\nvalue = 532000.0"] ;
11 -> 19 ;
20 [label="BuildingArea <= 26.5\nmse = 36705555555.556\nsamples = 3\nvalue = 1233333.333"] ;
4 -> 20 ;
21 [label="BuildingArea <= 23.5\nmse = 1056250000.0\nsamples = 2\nvalue = 1367500.0"] ;
20 -> 21 ;
22 [label="mse = 0.0\nsamples = 1\nvalue = 1335000.0"] ;
21 -> 22 ;
23 [label="mse = 0.0\nsamples = 1\nvalue = 1400000.0"] ;
21 -> 23 ;
24 [label="mse = 0.0\nsamples = 1\nvalue = 965000.0"] ;
20 -> 24 ;
25 [label="mse = 0.0\nsamples = 1\nvalue = 2975000.0"] ;
3 -> 25 ;
26 [label="BuildingArea <= 72.65\nmse = 71870073245.462\nsamples = 93\nvalue = 612413.978"] ;
2 -> 26 ;
27 [label="BuildingArea <= 49.0\nmse = 31224366143.862\nsamples = 43\nvalue = 440511.628"] ;
26 -> 27 ;
28 [label="BuildingArea <= 44.2\nmse = 3575655124.654\nsamples = 19\nvalue = 344947.368"] ;
27 -> 28 ;
29 [label="BuildingArea <= 35.82\nmse = 3138282222.222\nsamples = 15\nvalue = 331866.667"] ;
28 -> 29 ;
30 [label="BuildingArea <= 33.5\nmse = 2285000000.0\nsamples = 5\nvalue = 362500.0"] ;
29 -> 30 ;
31 [label="BuildingArea <= 31.8\nmse = 100000000.0\nsamples = 2\nvalue = 340000.0"] ;
30 -> 31 ;
32 [label="mse = 0.0\nsamples = 1\nvalue = 350000.0"] ;
31 -> 32 ;
33 [label="mse = 0.0\nsamples = 1\nvalue = 330000.0"] ;
31 -> 33 ;
34 [label="BuildingArea <= 34.5\nmse = 3179166666.667\nsamples = 3\nvalue = 377500.0"] ;
30 -> 34 ;
35 [label="mse = 0.0\nsamples = 1\nvalue = 442500.0"] ;
34 -> 35 ;
36 [label="BuildingArea <= 35.32\nmse = 1600000000.0\nsamples = 2\nvalue = 345000.0"] ;
34 -> 36 ;
37 [label="mse = 0.0\nsamples = 1\nvalue = 305000.0"] ;
36 -> 37 ;
38 [label="mse = 0.0\nsamples = 1\nvalue = 385000.0"] ;
36 -> 38 ;
39 [label="BuildingArea <= 36.5\nmse = 2861122500.0\nsamples = 10\nvalue = 316550.0"] ;
29 -> 39 ;
40 [label="mse = 0.0\nsamples = 1\nvalue = 210000.0"] ;
39 -> 40 ;
41 [label="BuildingArea <= 41.5\nmse = 1777432098.765\nsamples = 9\nvalue = 328388.889"] ;
39 -> 41 ;
42 [label="BuildingArea <= 39.25\nmse = 1216000000.0\nsamples = 5\nvalue = 353000.0"] ;
41 -> 42 ;
43 [label="BuildingArea <= 38.0\nmse = 225000000.0\nsamples = 2\nvalue = 315000.0"] ;
42 -> 43 ;
44 [label="mse = 0.0\nsamples = 1\nvalue = 300000.0"] ;
43 -> 44 ;
45 [label="mse = 0.0\nsamples = 1\nvalue = 330000.0"] ;
43 -> 45 ;
46 [label="BuildingArea <= 40.5\nmse = 272222222.222\nsamples = 3\nvalue = 378333.333"] ;
42 -> 46 ;
47 [label="BuildingArea <= 39.75\nmse = 56250000.0\nsamples = 2\nvalue = 367500.0"] ;
46 -> 47 ;
48 [label="mse = 0.0\nsamples = 1\nvalue = 360000.0"] ;
47 -> 48 ;
49 [label="mse = 0.0\nsamples = 1\nvalue = 375000.0"] ;
47 -> 49 ;
50 [label="mse = 0.0\nsamples = 1\nvalue = 400000.0"] ;
46 -> 50 ;
51 [label="BuildingArea <= 42.5\nmse = 775671875.0\nsamples = 4\nvalue = 297625.0"] ;
41 -> 51 ;
52 [label="mse = 0.0\nsamples = 1\nvalue = 265000.0"] ;
51 -> 52 ;
53 [label="BuildingArea <= 43.85\nmse = 561166666.667\nsamples = 3\nvalue = 308500.0"] ;
51 -> 53 ;
54 [label="BuildingArea <= 43.35\nmse = 25000000.0\nsamples = 2\nvalue = 325000.0"] ;
53 -> 54 ;
55 [label="mse = 0.0\nsamples = 1\nvalue = 320000.0"] ;
54 -> 55 ;
56 [label="mse = 0.0\nsamples = 1\nvalue = 330000.0"] ;
54 -> 56 ;
57 [label="mse = 0.0\nsamples = 1\nvalue = 275500.0"] ;
53 -> 57 ;
58 [label="BuildingArea <= 44.7\nmse = 2168000000.0\nsamples = 4\nvalue = 394000.0"] ;
28 -> 58 ;
59 [label="mse = 0.0\nsamples = 1\nvalue = 470000.0"] ;
58 -> 59 ;
60 [label="BuildingArea <= 47.5\nmse = 323555555.556\nsamples = 3\nvalue = 368666.667"] ;
58 -> 60 ;
61 [label="BuildingArea <= 46.0\nmse = 100000000.0\nsamples = 2\nvalue = 380000.0"] ;
60 -> 61 ;
62 [label="mse = 0.0\nsamples = 1\nvalue = 370000.0"] ;
61 -> 62 ;
63 [label="mse = 0.0\nsamples = 1\nvalue = 390000.0"] ;
61 -> 63 ;
64 [label="mse = 0.0\nsamples = 1\nvalue = 346000.0"] ;
60 -> 64 ;
65 [label="BuildingArea <= 68.305\nmse = 40159326388.889\nsamples = 24\nvalue = 516166.667"] ;
27 -> 65 ;
66 [label="BuildingArea <= 67.5\nmse = 47032976080.247\nsamples = 18\nvalue = 547194.444"] ;
65 -> 66 ;
67 [label="BuildingArea <= 63.85\nmse = 40504194335.938\nsamples = 16\nvalue = 520906.25"] ;
66 -> 67 ;
68 [label="BuildingArea <= 63.35\nmse = 45794505208.333\nsamples = 12\nvalue = 559875.0"] ;
67 -> 68 ;
69 [label="BuildingArea <= 56.0\nmse = 26133921487.603\nsamples = 11\nvalue = 515318.182"] ;
68 -> 69 ;
70 [label="BuildingArea <= 53.0\nmse = 61265046875.0\nsamples = 4\nvalue = 578875.0"] ;
69 -> 70 ;
71 [label="BuildingArea <= 51.5\nmse = 8381166666.667\nsamples = 3\nvalue = 443500.0"] ;
70 -> 71 ;
72 [label="BuildingArea <= 50.5\nmse = 1225000000.0\nsamples = 2\nvalue = 505000.0"] ;
71 -> 72 ;
73 [label="mse = 0.0\nsamples = 1\nvalue = 470000.0"] ;
72 -> 73 ;
74 [label="mse = 0.0\nsamples = 1\nvalue = 540000.0"] ;
72 -> 74 ;
75 [label="mse = 0.0\nsamples = 1\nvalue = 320500.0"] ;
71 -> 75 ;
76 [label="mse = 0.0\nsamples = 1\nvalue = 985000.0"] ;
70 -> 76 ;
77 [label="BuildingArea <= 58.5\nmse = 2431714285.714\nsamples = 7\nvalue = 479000.0"] ;
69 -> 77 ;
78 [label="mse = 0.0\nsamples = 1\nvalue = 390000.0"] ;
77 -> 78 ;
79 [label="BuildingArea <= 61.8\nmse = 1296805555.556\nsamples = 6\nvalue = 493833.333"] ;
77 -> 79 ;
80 [label="BuildingArea <= 61.3\nmse = 972750000.0\nsamples = 4\nvalue = 511500.0"] ;
79 -> 80 ;
81 [label="BuildingArea <= 59.5\nmse = 251555555.556\nsamples = 3\nvalue = 495333.333"] ;
80 -> 81 ;
82 [label="mse = 0.0\nsamples = 1\nvalue = 474000.0"] ;
81 -> 82 ;
83 [label="BuildingArea <= 60.5\nmse = 36000000.0\nsamples = 2\nvalue = 506000.0"] ;
81 -> 83 ;
84 [label="mse = 0.0\nsamples = 1\nvalue = 500000.0"] ;
83 -> 84 ;
85 [label="mse = 0.0\nsamples = 1\nvalue = 512000.0"] ;
83 -> 85 ;
86 [label="mse = 0.0\nsamples = 1\nvalue = 560000.0"] ;
80 -> 86 ;
87 [label="BuildingArea <= 62.5\nmse = 72250000.0\nsamples = 2\nvalue = 458500.0"] ;
79 -> 87 ;
88 [label="mse = 0.0\nsamples = 1\nvalue = 467000.0"] ;
87 -> 88 ;
89 [label="mse = 0.0\nsamples = 1\nvalue = 450000.0"] ;
87 -> 89 ;
90 [label="mse = 0.0\nsamples = 1\nvalue = 1050000.0"] ;
68 -> 90 ;
91 [label="BuildingArea <= 66.66\nmse = 6410500000.0\nsamples = 4\nvalue = 404000.0"] ;
67 -> 91 ;
92 [label="BuildingArea <= 65.66\nmse = 2040222222.222\nsamples = 3\nvalue = 363666.667"] ;
91 -> 92 ;
93 [label="BuildingArea <= 64.5\nmse = 20250000.0\nsamples = 2\nvalue = 395500.0"] ;
92 -> 93 ;
94 [label="mse = 0.0\nsamples = 1\nvalue = 400000.0"] ;
93 -> 94 ;
95 [label="mse = 0.0\nsamples = 1\nvalue = 391000.0"] ;
93 -> 95 ;
96 [label="mse = 0.0\nsamples = 1\nvalue = 300000.0"] ;
92 -> 96 ;
97 [label="mse = 0.0\nsamples = 1\nvalue = 525000.0"] ;
91 -> 97 ;
98 [label="BuildingArea <= 68.055\nmse = 49506250000.0\nsamples = 2\nvalue = 757500.0"] ;
66 -> 98 ;
99 [label="mse = 0.0\nsamples = 1\nvalue = 980000.0"] ;
98 -> 99 ;
100 [label="mse = 0.0\nsamples = 1\nvalue = 535000.0"] ;
98 -> 100 ;
101 [label="BuildingArea <= 70.5\nmse = 7985701388.889\nsamples = 6\nvalue = 423083.333"] ;
65 -> 101 ;
102 [label="BuildingArea <= 69.5\nmse = 1600722222.222\nsamples = 3\nvalue = 341166.667"] ;
101 -> 102 ;
103 [label="BuildingArea <= 68.75\nmse = 588062500.0\nsamples = 2\nvalue = 365750.0"] ;
102 -> 103 ;
104 [label="mse = 0.0\nsamples = 1\nvalue = 341500.0"] ;
103 -> 104 ;
105 [label="mse = 0.0\nsamples = 1\nvalue = 390000.0"] ;
103 -> 105 ;
106 [label="mse = 0.0\nsamples = 1\nvalue = 292000.0"] ;
102 -> 106 ;
107 [label="BuildingArea <= 71.5\nmse = 950000000.0\nsamples = 3\nvalue = 505000.0"] ;
101 -> 107 ;
108 [label="mse = 0.0\nsamples = 1\nvalue = 545000.0"] ;
107 -> 108 ;
109 [label="BuildingArea <= 72.15\nmse = 225000000.0\nsamples = 2\nvalue = 485000.0"] ;
107 -> 109 ;
110 [label="mse = 0.0\nsamples = 1\nvalue = 500000.0"] ;
109 -> 110 ;
111 [label="mse = 0.0\nsamples = 1\nvalue = 470000.0"] ;
109 -> 111 ;
112 [label="BuildingArea <= 78.27\nmse = 59556532500.0\nsamples = 50\nvalue = 760250.0"] ;
26 -> 112 ;
113 [label="BuildingArea <= 75.725\nmse = 59805984375.0\nsamples = 8\nvalue = 635375.0"] ;
112 -> 113 ;
114 [label="BuildingArea <= 75.225\nmse = 26975250000.0\nsamples = 4\nvalue = 846500.0"] ;
113 -> 114 ;
115 [label="BuildingArea <= 74.5\nmse = 25766000000.0\nsamples = 3\nvalue = 897000.0"] ;
114 -> 115 ;
116 [label="BuildingArea <= 73.5\nmse = 8649000000.0\nsamples = 2\nvalue = 797000.0"] ;
115 -> 116 ;
117 [label="mse = 0.0\nsamples = 1\nvalue = 890000.0"] ;
116 -> 117 ;
118 [label="mse = 0.0\nsamples = 1\nvalue = 704000.0"] ;
116 -> 118 ;
119 [label="mse = 0.0\nsamples = 1\nvalue = 1097000.0"] ;
115 -> 119 ;
120 [label="mse = 0.0\nsamples = 1\nvalue = 695000.0"] ;
114 -> 120 ;
121 [label="BuildingArea <= 77.25\nmse = 3489187500.0\nsamples = 4\nvalue = 424250.0"] ;
113 -> 121 ;
122 [label="BuildingArea <= 76.5\nmse = 992250000.0\nsamples = 2\nvalue = 478500.0"] ;
121 -> 122 ;
123 [label="mse = 0.0\nsamples = 1\nvalue = 510000.0"] ;
122 -> 123 ;
124 [label="mse = 0.0\nsamples = 1\nvalue = 447000.0"] ;
122 -> 124 ;
125 [label="BuildingArea <= 77.75\nmse = 100000000.0\nsamples = 2\nvalue = 370000.0"] ;
121 -> 125 ;
126 [label="mse = 0.0\nsamples = 1\nvalue = 360000.0"] ;
125 -> 126 ;
127 [label="mse = 0.0\nsamples = 1\nvalue = 380000.0"] ;
125 -> 127 ;
128 [label="BuildingArea <= 105.8\nmse = 55973016581.633\nsamples = 42\nvalue = 784035.714"] ;
112 -> 128 ;
129 [label="BuildingArea <= 79.5\nmse = 55392846817.371\nsamples = 41\nvalue = 790841.463"] ;
128 -> 129 ;
130 [label="BuildingArea <= 78.77\nmse = 6006250000.0\nsamples = 2\nvalue = 957500.0"] ;
129 -> 130 ;
131 [label="mse = 0.0\nsamples = 1\nvalue = 880000.0"] ;
130 -> 131 ;
132 [label="mse = 0.0\nsamples = 1\nvalue = 1035000.0"] ;
130 -> 132 ;
133 [label="BuildingArea <= 84.5\nmse = 56428086127.548\nsamples = 39\nvalue = 782294.872"] ;
129 -> 133 ;
134 [label="BuildingArea <= 82.15\nmse = 24881979166.667\nsamples = 6\nvalue = 681750.0"] ;
133 -> 134 ;
135 [label="BuildingArea <= 81.895\nmse = 29554296875.0\nsamples = 4\nvalue = 731875.0"] ;
134 -> 135 ;
136 [label="BuildingArea <= 80.35\nmse = 4405555555.555\nsamples = 3\nvalue = 638333.333"] ;
135 -> 136 ;
137 [label="mse = 0.0\nsamples = 1\nvalue = 710000.0"] ;
136 -> 137 ;
138 [label="BuildingArea <= 81.245\nmse = 2756250000.0\nsamples = 2\nvalue = 602500.0"] ;
136 -> 138 ;
139 [label="mse = 0.0\nsamples = 1\nvalue = 550000.0"] ;
138 -> 139 ;
140 [label="mse = 0.0\nsamples = 1\nvalue = 655000.0"] ;
138 -> 140 ;
141 [label="mse = 0.0\nsamples = 1\nvalue = 1012500.0"] ;
135 -> 141 ;
142 [label="BuildingArea <= 83.15\nmse = 462250000.0\nsamples = 2\nvalue = 581500.0"] ;
134 -> 142 ;
143 [label="mse = 0.0\nsamples = 1\nvalue = 560000.0"] ;
142 -> 143 ;
144 [label="mse = 0.0\nsamples = 1\nvalue = 603000.0"] ;
142 -> 144 ;
145 [label="BuildingArea <= 85.275\nmse = 59991501836.547\nsamples = 33\nvalue = 800575.758"] ;
133 -> 145 ;
146 [label="BuildingArea <= 85.1\nmse = 16900000000.0\nsamples = 2\nvalue = 1185000.0"] ;
145 -> 146 ;
147 [label="mse = 0.0\nsamples = 1\nvalue = 1315000.0"] ;
146 -> 147 ;
148 [label="mse = 0.0\nsamples = 1\nvalue = 1055000.0"] ;
146 -> 148 ;
149 [label="BuildingArea <= 95.25\nmse = 52622158688.866\nsamples = 31\nvalue = 775774.194"] ;
145 -> 149 ;
150 [label="BuildingArea <= 85.675\nmse = 40968556213.018\nsamples = 13\nvalue = 707461.538"] ;
149 -> 150 ;
151 [label="mse = 0.0\nsamples = 1\nvalue = 862000.0"] ;
150 -> 151 ;
152 [label="BuildingArea <= 88.65\nmse = 42226576388.889\nsamples = 12\nvalue = 694583.333"] ;
150 -> 152 ;
153 [label="BuildingArea <= 86.25\nmse = 16154000000.0\nsamples = 4\nvalue = 606000.0"] ;
152 -> 153 ;
154 [label="mse = 0.0\nsamples = 1\nvalue = 500000.0"] ;
153 -> 154 ;
155 [label="BuildingArea <= 87.25\nmse = 16544888888.889\nsamples = 3\nvalue = 641333.333"] ;
153 -> 155 ;
156 [label="mse = 0.0\nsamples = 1\nvalue = 816000.0"] ;
155 -> 156 ;
157 [label="BuildingArea <= 88.15\nmse = 1936000000.0\nsamples = 2\nvalue = 554000.0"] ;
155 -> 157 ;
158 [label="mse = 0.0\nsamples = 1\nvalue = 598000.0"] ;
157 -> 158 ;
159 [label="mse = 0.0\nsamples = 1\nvalue = 510000.0"] ;
157 -> 159 ;
160 [label="BuildingArea <= 92.0\nmse = 49377609375.0\nsamples = 8\nvalue = 738875.0"] ;
152 -> 160 ;
161 [label="BuildingArea <= 90.5\nmse = 95238888888.889\nsamples = 3\nvalue = 871666.667"] ;
160 -> 161 ;
162 [label="BuildingArea <= 89.5\nmse = 71556250000.0\nsamples = 2\nvalue = 717500.0"] ;
161 -> 162 ;
163 [label="mse = 0.0\nsamples = 1\nvalue = 985000.0"] ;
162 -> 163 ;
164 [label="mse = 0.0\nsamples = 1\nvalue = 450000.0"] ;
162 -> 164 ;
165 [label="mse = 0.0\nsamples = 1\nvalue = 1180000.0"] ;
161 -> 165 ;
166 [label="BuildingArea <= 94.25\nmse = 4932560000.0\nsamples = 5\nvalue = 659200.0"] ;
160 -> 166 ;
167 [label="BuildingArea <= 93.41\nmse = 3950187500.0\nsamples = 4\nvalue = 680250.0"] ;
166 -> 167 ;
168 [label="mse = 0.0\nsamples = 1\nvalue = 580000.0"] ;
167 -> 168 ;
169 [label="BuildingArea <= 93.92\nmse = 800222222.222\nsamples = 3\nvalue = 713666.667"] ;
167 -> 169 ;
170 [label="BuildingArea <= 93.83\nmse = 210250000.0\nsamples = 2\nvalue = 695500.0"] ;
169 -> 170 ;
171 [label="mse = 0.0\nsamples = 1\nvalue = 681000.0"] ;
170 -> 171 ;
172 [label="mse = 0.0\nsamples = 1\nvalue = 710000.0"] ;
170 -> 172 ;
173 [label="mse = 0.0\nsamples = 1\nvalue = 750000.0"] ;
169 -> 173 ;
174 [label="mse = 0.0\nsamples = 1\nvalue = 575000.0"] ;
166 -> 174 ;
175 [label="BuildingArea <= 98.0\nmse = 55234182098.766\nsamples = 18\nvalue = 825111.111"] ;
149 -> 175 ;
176 [label="BuildingArea <= 96.5\nmse = 2500000000.0\nsamples = 2\nvalue = 1260000.0"] ;
175 -> 176 ;
177 [label="mse = 0.0\nsamples = 1\nvalue = 1210000.0"] ;
176 -> 177 ;
178 [label="mse = 0.0\nsamples = 1\nvalue = 1310000.0"] ;
176 -> 178 ;
179 [label="BuildingArea <= 99.25\nmse = 35229781250.0\nsamples = 16\nvalue = 770750.0"] ;
175 -> 179 ;
180 [label="mse = 0.0\nsamples = 1\nvalue = 380000.0"] ;
179 -> 180 ;
181 [label="BuildingArea <= 105.465\nmse = 26720793333.333\nsamples = 15\nvalue = 796800.0"] ;
179 -> 181 ;
182 [label="BuildingArea <= 105.115\nmse = 25772821428.571\nsamples = 14\nvalue = 783000.0"] ;
181 -> 182 ;
183 [label="BuildingArea <= 104.815\nmse = 20398801775.148\nsamples = 13\nvalue = 805923.077"] ;
182 -> 183 ;
184 [label="BuildingArea <= 102.5\nmse = 9701102430.556\nsamples = 12\nvalue = 775041.667"] ;
183 -> 184 ;
185 [label="BuildingArea <= 101.44\nmse = 8359437500.0\nsamples = 8\nvalue = 805250.0"] ;
184 -> 185 ;
186 [label="BuildingArea <= 99.75\nmse = 9663250000.0\nsamples = 4\nvalue = 750500.0"] ;
185 -> 186 ;
187 [label="mse = 0.0\nsamples = 1\nvalue = 885000.0"] ;
186 -> 187 ;
188 [label="BuildingArea <= 100.985\nmse = 4844222222.222\nsamples = 3\nvalue = 705666.667"] ;
186 -> 188 ;
189 [label="BuildingArea <= 100.3\nmse = 4032250000.0\nsamples = 2\nvalue = 738500.0"] ;
188 -> 189 ;
190 [label="mse = 0.0\nsamples = 1\nvalue = 675000.0"] ;
189 -> 190 ;
191 [label="mse = 0.0\nsamples = 1\nvalue = 802000.0"] ;
189 -> 191 ;
192 [label="mse = 0.0\nsamples = 1\nvalue = 640000.0"] ;
188 -> 192 ;
193 [label="BuildingArea <= 101.73\nmse = 1060500000.0\nsamples = 4\nvalue = 860000.0"] ;
185 -> 193 ;
194 [label="BuildingArea <= 101.605\nmse = 2250000.0\nsamples = 2\nvalue = 892500.0"] ;
193 -> 194 ;
195 [label="mse = 0.0\nsamples = 1\nvalue = 894000.0"] ;
194 -> 195 ;
196 [label="mse = 0.0\nsamples = 1\nvalue = 891000.0"] ;
194 -> 196 ;
197 [label="BuildingArea <= 101.88\nmse = 6250000.0\nsamples = 2\nvalue = 827500.0"] ;
193 -> 197 ;
198 [label="mse = 0.0\nsamples = 1\nvalue = 830000.0"] ;
197 -> 198 ;
199 [label="mse = 0.0\nsamples = 1\nvalue = 825000.0"] ;
197 -> 199 ;
200 [label="BuildingArea <= 104.2\nmse = 6909171875.0\nsamples = 4\nvalue = 714625.0"] ;
184 -> 200 ;
201 [label="BuildingArea <= 103.5\nmse = 4900000000.0\nsamples = 2\nvalue = 680000.0"] ;
200 -> 201 ;
202 [label="mse = 0.0\nsamples = 1\nvalue = 750000.0"] ;
201 -> 202 ;
203 [label="mse = 0.0\nsamples = 1\nvalue = 610000.0"] ;
201 -> 203 ;
204 [label="BuildingArea <= 104.515\nmse = 6520562500.0\nsamples = 2\nvalue = 749250.0"] ;
200 -> 204 ;
205 [label="mse = 0.0\nsamples = 1\nvalue = 830000.0"] ;
204 -> 205 ;
206 [label="mse = 0.0\nsamples = 1\nvalue = 668500.0"] ;
204 -> 206 ;
207 [label="mse = 0.0\nsamples = 1\nvalue = 1176500.0"] ;
183 -> 207 ;
208 [label="mse = 0.0\nsamples = 1\nvalue = 485000.0"] ;
182 -> 208 ;
209 [label="mse = 0.0\nsamples = 1\nvalue = 990000.0"] ;
181 -> 209 ;
210 [label="mse = 0.0\nsamples = 1\nvalue = 505000.0"] ;
128 -> 210 ;
211 [label="BuildingArea <= 130.26\nmse = 293033181934.4\nsamples = 117\nvalue = 1126042.735"] ;
1 -> 211 ;
212 [label="BuildingArea <= 108.5\nmse = 194246988888.889\nsamples = 45\nvalue = 984000.0"] ;
211 -> 212 ;
213 [label="BuildingArea <= 107.7\nmse = 143730775510.204\nsamples = 7\nvalue = 1225714.286"] ;
212 -> 213 ;
214 [label="BuildingArea <= 107.2\nmse = 79279555555.556\nsamples = 6\nvalue = 1113333.333"] ;
213 -> 214 ;
215 [label="BuildingArea <= 106.88\nmse = 74765440000.0\nsamples = 5\nvalue = 1171600.0"] ;
214 -> 215 ;
216 [label="BuildingArea <= 106.1\nmse = 26060750000.0\nsamples = 4\nvalue = 1055500.0"] ;
215 -> 216 ;
217 [label="mse = 0.0\nsamples = 1\nvalue = 1300000.0"] ;
216 -> 217 ;
218 [label="BuildingArea <= 106.58\nmse = 8178666666.667\nsamples = 3\nvalue = 974000.0"] ;
216 -> 218 ;
219 [label="BuildingArea <= 106.3\nmse = 7225000000.0\nsamples = 2\nvalue = 1015000.0"] ;
218 -> 219 ;
220 [label="mse = 0.0\nsamples = 1\nvalue = 930000.0"] ;
219 -> 220 ;
221 [label="mse = 0.0\nsamples = 1\nvalue = 1100000.0"] ;
219 -> 221 ;
222 [label="mse = 0.0\nsamples = 1\nvalue = 892000.0"] ;
218 -> 222 ;
223 [label="mse = 0.0\nsamples = 1\nvalue = 1636000.0"] ;
215 -> 223 ;
224 [label="mse = 0.0\nsamples = 1\nvalue = 822000.0"] ;
214 -> 224 ;
225 [label="mse = 0.0\nsamples = 1\nvalue = 1900000.0"] ;
213 -> 225 ;
226 [label="BuildingArea <= 129.46\nmse = 190807367728.532\nsamples = 38\nvalue = 939473.684"] ;
212 -> 226 ;
227 [label="BuildingArea <= 127.4\nmse = 192772969714.506\nsamples = 36\nvalue = 958902.778"] ;
226 -> 227 ;
228 [label="BuildingArea <= 123.105\nmse = 201125875114.784\nsamples = 33\nvalue = 932439.394"] ;
227 -> 228 ;
229 [label="BuildingArea <= 122.93\nmse = 231696893860.947\nsamples = 26\nvalue = 991519.231"] ;
228 -> 229 ;
230 [label="BuildingArea <= 122.43\nmse = 189849617600.0\nsamples = 25\nvalue = 947180.0"] ;
229 -> 230 ;
231 [label="BuildingArea <= 119.77\nmse = 179299134982.639\nsamples = 24\nvalue = 974354.167"] ;
230 -> 231 ;
232 [label="BuildingArea <= 115.48\nmse = 127993333161.157\nsamples = 22\nvalue = 899295.455"] ;
231 -> 232 ;
233 [label="BuildingArea <= 114.5\nmse = 144433311523.438\nsamples = 16\nvalue = 976281.25"] ;
232 -> 233 ;
234 [label="BuildingArea <= 112.45\nmse = 116816415555.556\nsamples = 15\nvalue = 928033.333"] ;
233 -> 234 ;
235 [label="BuildingArea <= 111.52\nmse = 175628859375.0\nsamples = 8\nvalue = 1033875.0"] ;
234 -> 235 ;
236 [label="BuildingArea <= 111.02\nmse = 97238693877.551\nsamples = 7\nvalue = 920142.857"] ;
235 -> 236 ;
237 [label="BuildingArea <= 110.935\nmse = 73165000000.0\nsamples = 6\nvalue = 996000.0"] ;
236 -> 237 ;
238 [label="BuildingArea <= 109.25\nmse = 45663360000.0\nsamples = 5\nvalue = 912200.0"] ;
237 -> 238 ;
239 [label="mse = 0.0\nsamples = 1\nvalue = 675000.0"] ;
238 -> 239 ;
240 [label="BuildingArea <= 110.435\nmse = 39496750000.0\nsamples = 4\nvalue = 971500.0"] ;
238 -> 240 ;
241 [label="BuildingArea <= 109.99\nmse = 14896888888.889\nsamples = 3\nvalue = 1068666.667"] ;
240 -> 241 ;
242 [label="BuildingArea <= 109.74\nmse = 9409000000.0\nsamples = 2\nvalue = 1003000.0"] ;
241 -> 242 ;
243 [label="mse = 0.0\nsamples = 1\nvalue = 1100000.0"] ;
242 -> 243 ;
244 [label="mse = 0.0\nsamples = 1\nvalue = 906000.0"] ;
242 -> 244 ;
245 [label="mse = 0.0\nsamples = 1\nvalue = 1200000.0"] ;
241 -> 245 ;
246 [label="mse = 0.0\nsamples = 1\nvalue = 680000.0"] ;
240 -> 246 ;
247 [label="mse = 0.0\nsamples = 1\nvalue = 1415000.0"] ;
237 -> 247 ;
248 [label="mse = 0.0\nsamples = 1\nvalue = 465000.0"] ;
236 -> 248 ;
249 [label="mse = 0.0\nsamples = 1\nvalue = 1830000.0"] ;
235 -> 249 ;
250 [label="BuildingArea <= 113.785\nmse = 22167602040.816\nsamples = 7\nvalue = 807071.429"] ;
234 -> 250 ;
251 [label="BuildingArea <= 113.1\nmse = 10499560000.0\nsamples = 5\nvalue = 737300.0"] ;
250 -> 251 ;
252 [label="BuildingArea <= 112.95\nmse = 600250000.0\nsamples = 2\nvalue = 805500.0"] ;
251 -> 252 ;
253 [label="mse = 0.0\nsamples = 1\nvalue = 781000.0"] ;
252 -> 253 ;
254 [label="mse = 0.0\nsamples = 1\nvalue = 830000.0"] ;
252 -> 254 ;
255 [label="BuildingArea <= 113.4\nmse = 11931055555.556\nsamples = 3\nvalue = 691833.333"] ;
251 -> 255 ;
256 [label="mse = 0.0\nsamples = 1\nvalue = 556500.0"] ;
255 -> 256 ;
257 [label="BuildingArea <= 113.68\nmse = 4160250000.0\nsamples = 2\nvalue = 759500.0"] ;
255 -> 257 ;
258 [label="mse = 0.0\nsamples = 1\nvalue = 695000.0"] ;
257 -> 258 ;
259 [label="mse = 0.0\nsamples = 1\nvalue = 824000.0"] ;
257 -> 259 ;
260 [label="BuildingArea <= 113.905\nmse = 8742250000.0\nsamples = 2\nvalue = 981500.0"] ;
250 -> 260 ;
261 [label="mse = 0.0\nsamples = 1\nvalue = 888000.0"] ;
260 -> 261 ;
262 [label="mse = 0.0\nsamples = 1\nvalue = 1075000.0"] ;
260 -> 262 ;
263 [label="mse = 0.0\nsamples = 1\nvalue = 1700000.0"] ;
233 -> 263 ;
264 [label="BuildingArea <= 117.5\nmse = 26202333333.333\nsamples = 6\nvalue = 694000.0"] ;
232 -> 264 ;
265 [label="BuildingArea <= 116.2\nmse = 29344250000.0\nsamples = 4\nvalue = 751500.0"] ;
264 -> 265 ;
266 [label="BuildingArea <= 115.98\nmse = 6250000.0\nsamples = 2\nvalue = 602500.0"] ;
265 -> 266 ;
267 [label="mse = 0.0\nsamples = 1\nvalue = 605000.0"] ;
266 -> 267 ;
268 [label="mse = 0.0\nsamples = 1\nvalue = 600000.0"] ;
266 -> 268 ;
269 [label="BuildingArea <= 116.7\nmse = 14280250000.0\nsamples = 2\nvalue = 900500.0"] ;
265 -> 269 ;
270 [label="mse = 0.0\nsamples = 1\nvalue = 1020000.0"] ;
269 -> 270 ;
271 [label="mse = 0.0\nsamples = 1\nvalue = 781000.0"] ;
269 -> 271 ;
272 [label="BuildingArea <= 118.27\nmse = 81000000.0\nsamples = 2\nvalue = 579000.0"] ;
264 -> 272 ;
273 [label="mse = 0.0\nsamples = 1\nvalue = 588000.0"] ;
272 -> 273 ;
274 [label="mse = 0.0\nsamples = 1\nvalue = 570000.0"] ;
272 -> 274 ;
275 [label="mse = 0.0\nsamples = 2\nvalue = 1800000.0"] ;
231 -> 275 ;
276 [label="mse = 0.0\nsamples = 1\nvalue = 295000.0"] ;
230 -> 276 ;
277 [label="mse = 0.0\nsamples = 1\nvalue = 2100000.0"] ;
229 -> 277 ;
278 [label="BuildingArea <= 123.355\nmse = 26458285714.286\nsamples = 7\nvalue = 713000.0"] ;
228 -> 278 ;
279 [label="mse = 0.0\nsamples = 1\nvalue = 465000.0"] ;
278 -> 279 ;
280 [label="BuildingArea <= 126.85\nmse = 18908888888.889\nsamples = 6\nvalue = 754333.333"] ;
278 -> 280 ;
281 [label="BuildingArea <= 123.975\nmse = 14417360000.0\nsamples = 5\nvalue = 717200.0"] ;
280 -> 281 ;
282 [label="mse = 0.0\nsamples = 1\nvalue = 900000.0"] ;
281 -> 282 ;
283 [label="BuildingArea <= 124.725\nmse = 7579250000.0\nsamples = 4\nvalue = 671500.0"] ;
281 -> 283 ;
284 [label="mse = 0.0\nsamples = 1\nvalue = 521000.0"] ;
283 -> 284 ;
285 [label="BuildingArea <= 126.35\nmse = 38888888.889\nsamples = 3\nvalue = 721666.667"] ;
283 -> 285 ;
286 [label="BuildingArea <= 125.5\nmse = 6250000.0\nsamples = 2\nvalue = 717500.0"] ;
285 -> 286 ;
287 [label="mse = 0.0\nsamples = 1\nvalue = 720000.0"] ;
286 -> 287 ;
288 [label="mse = 0.0\nsamples = 1\nvalue = 715000.0"] ;
286 -> 288 ;
289 [label="mse = 0.0\nsamples = 1\nvalue = 730000.0"] ;
285 -> 289 ;
290 [label="mse = 0.0\nsamples = 1\nvalue = 940000.0"] ;
280 -> 290 ;
291 [label="BuildingArea <= 127.9\nmse = 8450000000.0\nsamples = 3\nvalue = 1250000.0"] ;
227 -> 291 ;
292 [label="mse = 0.0\nsamples = 1\nvalue = 1360000.0"] ;
291 -> 292 ;
293 [label="BuildingArea <= 128.5\nmse = 3600000000.0\nsamples = 2\nvalue = 1195000.0"] ;
291 -> 293 ;
294 [label="mse = 0.0\nsamples = 1\nvalue = 1135000.0"] ;
293 -> 294 ;
295 [label="mse = 0.0\nsamples = 1\nvalue = 1255000.0"] ;
293 -> 295 ;
296 [label="BuildingArea <= 129.96\nmse = 26325062500.0\nsamples = 2\nvalue = 589750.0"] ;
226 -> 296 ;
297 [label="mse = 0.0\nsamples = 1\nvalue = 427500.0"] ;
296 -> 297 ;
298 [label="mse = 0.0\nsamples = 1\nvalue = 752000.0"] ;
296 -> 298 ;
299 [label="BuildingArea <= 184.375\nmse = 334283161844.136\nsamples = 72\nvalue = 1214819.444"] ;
211 -> 299 ;
300 [label="BuildingArea <= 158.5\nmse = 340515520478.891\nsamples = 69\nvalue = 1233173.913"] ;
299 -> 300 ;
301 [label="BuildingArea <= 131.135\nmse = 198424751020.408\nsamples = 35\nvalue = 1138142.857"] ;
300 -> 301 ;
302 [label="BuildingArea <= 130.76\nmse = 75350250000.0\nsamples = 2\nvalue = 1725500.0"] ;
301 -> 302 ;
303 [label="mse = 0.0\nsamples = 1\nvalue = 1451000.0"] ;
302 -> 303 ;
304 [label="mse = 0.0\nsamples = 1\nvalue = 2000000.0"] ;
302 -> 304 ;
305 [label="BuildingArea <= 134.15\nmse = 183708247933.884\nsamples = 33\nvalue = 1102545.455"] ;
301 -> 305 ;
306 [label="BuildingArea <= 133.5\nmse = 18198960000.0\nsamples = 5\nvalue = 868200.0"] ;
305 -> 306 ;
307 [label="BuildingArea <= 132.3\nmse = 13907687500.0\nsamples = 4\nvalue = 910250.0"] ;
306 -> 307 ;
308 [label="BuildingArea <= 131.635\nmse = 1806250000.0\nsamples = 2\nvalue = 822500.0"] ;
307 -> 308 ;
309 [label="mse = 0.0\nsamples = 1\nvalue = 780000.0"] ;
308 -> 309 ;
310 [label="mse = 0.0\nsamples = 1\nvalue = 865000.0"] ;
308 -> 310 ;
311 [label="BuildingArea <= 132.8\nmse = 10609000000.0\nsamples = 2\nvalue = 998000.0"] ;
307 -> 311 ;
312 [label="mse = 0.0\nsamples = 1\nvalue = 1101000.0"] ;
311 -> 312 ;
313 [label="mse = 0.0\nsamples = 1\nvalue = 895000.0"] ;
311 -> 313 ;
314 [label="mse = 0.0\nsamples = 1\nvalue = 700000.0"] ;
306 -> 314 ;
315 [label="BuildingArea <= 134.9\nmse = 201705524234.694\nsamples = 28\nvalue = 1144392.857"] ;
305 -> 315 ;
316 [label="mse = 0.0\nsamples = 1\nvalue = 1900000.0"] ;
315 -> 316 ;
317 [label="BuildingArea <= 151.27\nmse = 187246908093.279\nsamples = 27\nvalue = 1116407.407"] ;
315 -> 317 ;
318 [label="BuildingArea <= 136.745\nmse = 214138839506.173\nsamples = 18\nvalue = 1184777.778"] ;
317 -> 318 ;
319 [label="BuildingArea <= 135.995\nmse = 194481000000.0\nsamples = 2\nvalue = 801000.0"] ;
318 -> 319 ;
320 [label="mse = 0.0\nsamples = 1\nvalue = 1242000.0"] ;
319 -> 320 ;
321 [label="mse = 0.0\nsamples = 1\nvalue = 360000.0"] ;
319 -> 321 ;
322 [label="BuildingArea <= 137.5\nmse = 195884062500.0\nsamples = 16\nvalue = 1232750.0"] ;
318 -> 322 ;
323 [label="mse = 0.0\nsamples = 1\nvalue = 2251000.0"] ;
322 -> 323 ;
324 [label="BuildingArea <= 146.5\nmse = 135212648888.889\nsamples = 15\nvalue = 1164866.667"] ;
322 -> 324 ;
325 [label="BuildingArea <= 139.2\nmse = 91201506172.84\nsamples = 9\nvalue = 1035222.222"] ;
324 -> 325 ;
326 [label="BuildingArea <= 138.5\nmse = 5625000000.0\nsamples = 2\nvalue = 1350000.0"] ;
325 -> 326 ;
327 [label="mse = 0.0\nsamples = 1\nvalue = 1275000.0"] ;
326 -> 327 ;
328 [label="mse = 0.0\nsamples = 1\nvalue = 1425000.0"] ;
326 -> 328 ;
329 [label="BuildingArea <= 141.5\nmse = 79253346938.776\nsamples = 7\nvalue = 945285.714"] ;
325 -> 329 ;
330 [label="BuildingArea <= 140.5\nmse = 2524222222.222\nsamples = 3\nvalue = 795666.667"] ;
329 -> 330 ;
331 [label="BuildingArea <= 139.7\nmse = 552250000.0\nsamples = 2\nvalue = 828500.0"] ;
330 -> 331 ;
332 [label="mse = 0.0\nsamples = 1\nvalue = 852000.0"] ;
331 -> 332 ;
333 [label="mse = 0.0\nsamples = 1\nvalue = 805000.0"] ;
331 -> 333 ;
334 [label="mse = 0.0\nsamples = 1\nvalue = 730000.0"] ;
330 -> 334 ;
335 [label="BuildingArea <= 143.0\nmse = 107418750000.0\nsamples = 4\nvalue = 1057500.0"] ;
329 -> 335 ;
336 [label="mse = 0.0\nsamples = 1\nvalue = 1600000.0"] ;
335 -> 336 ;
337 [label="BuildingArea <= 144.5\nmse = 12422222222.222\nsamples = 3\nvalue = 876666.667"] ;
335 -> 337 ;
338 [label="mse = 0.0\nsamples = 1\nvalue = 1000000.0"] ;
337 -> 338 ;
339 [label="BuildingArea <= 145.5\nmse = 7225000000.0\nsamples = 2\nvalue = 815000.0"] ;
337 -> 339 ;
340 [label="mse = 0.0\nsamples = 1\nvalue = 730000.0"] ;
339 -> 340 ;
341 [label="mse = 0.0\nsamples = 1\nvalue = 900000.0"] ;
339 -> 341 ;
342 [label="BuildingArea <= 147.1\nmse = 138200555555.556\nsamples = 6\nvalue = 1359333.333"] ;
324 -> 342 ;
343 [label="mse = 0.0\nsamples = 1\nvalue = 2000000.0"] ;
342 -> 343 ;
344 [label="BuildingArea <= 150.0\nmse = 67331760000.0\nsamples = 5\nvalue = 1231200.0"] ;
342 -> 344 ;
345 [label="BuildingArea <= 147.6\nmse = 29092187500.0\nsamples = 4\nvalue = 1126250.0"] ;
344 -> 345 ;
346 [label="mse = 0.0\nsamples = 1\nvalue = 835000.0"] ;
345 -> 346 ;
347 [label="BuildingArea <= 148.735\nmse = 1088888888.889\nsamples = 3\nvalue = 1223333.333"] ;
345 -> 347 ;
348 [label="BuildingArea <= 148.235\nmse = 225000000.0\nsamples = 2\nvalue = 1245000.0"] ;
347 -> 348 ;
349 [label="mse = 0.0\nsamples = 1\nvalue = 1230000.0"] ;
348 -> 349 ;
350 [label="mse = 0.0\nsamples = 1\nvalue = 1260000.0"] ;
348 -> 350 ;
351 [label="mse = 0.0\nsamples = 1\nvalue = 1180000.0"] ;
347 -> 351 ;
352 [label="mse = 0.0\nsamples = 1\nvalue = 1651000.0"] ;
344 -> 352 ;
353 [label="BuildingArea <= 153.5\nmse = 105416000000.0\nsamples = 9\nvalue = 979666.667"] ;
317 -> 353 ;
354 [label="BuildingArea <= 152.27\nmse = 6084000000.0\nsamples = 2\nvalue = 556000.0"] ;
353 -> 354 ;
355 [label="mse = 0.0\nsamples = 1\nvalue = 478000.0"] ;
354 -> 355 ;
356 [label="mse = 0.0\nsamples = 1\nvalue = 634000.0"] ;
354 -> 356 ;
357 [label="BuildingArea <= 155.5\nmse = 67860204081.633\nsamples = 7\nvalue = 1100714.286"] ;
353 -> 357 ;
358 [label="BuildingArea <= 154.15\nmse = 27116666666.667\nsamples = 3\nvalue = 1315000.0"] ;
357 -> 358 ;
359 [label="mse = 0.0\nsamples = 1\nvalue = 1500000.0"] ;
358 -> 359 ;
360 [label="BuildingArea <= 154.65\nmse = 15006250000.0\nsamples = 2\nvalue = 1222500.0"] ;
358 -> 360 ;
361 [label="mse = 0.0\nsamples = 1\nvalue = 1100000.0"] ;
360 -> 361 ;
362 [label="mse = 0.0\nsamples = 1\nvalue = 1345000.0"] ;
360 -> 362 ;
363 [label="BuildingArea <= 157.968\nmse = 38150000000.0\nsamples = 4\nvalue = 940000.0"] ;
357 -> 363 ;
364 [label="BuildingArea <= 156.3\nmse = 20822222222.222\nsamples = 3\nvalue = 853333.333"] ;
363 -> 364 ;
365 [label="mse = 0.0\nsamples = 1\nvalue = 970000.0"] ;
364 -> 365 ;
366 [label="BuildingArea <= 157.268\nmse = 21025000000.0\nsamples = 2\nvalue = 795000.0"] ;
364 -> 366 ;
367 [label="mse = 0.0\nsamples = 1\nvalue = 650000.0"] ;
366 -> 367 ;
368 [label="mse = 0.0\nsamples = 1\nvalue = 940000.0"] ;
366 -> 368 ;
369 [label="mse = 0.0\nsamples = 1\nvalue = 1200000.0"] ;
363 -> 369 ;
370 [label="BuildingArea <= 165.25\nmse = 467918970588.235\nsamples = 34\nvalue = 1331000.0"] ;
300 -> 370 ;
371 [label="BuildingArea <= 164.5\nmse = 396762560000.0\nsamples = 5\nvalue = 1884200.0"] ;
370 -> 371 ;
372 [label="BuildingArea <= 161.5\nmse = 210467687500.0\nsamples = 4\nvalue = 1645250.0"] ;
371 -> 372 ;
373 [label="BuildingArea <= 159.5\nmse = 188790250000.0\nsamples = 2\nvalue = 1365500.0"] ;
372 -> 373 ;
374 [label="mse = 0.0\nsamples = 1\nvalue = 1800000.0"] ;
373 -> 374 ;
375 [label="mse = 0.0\nsamples = 1\nvalue = 931000.0"] ;
373 -> 375 ;
376 [label="BuildingArea <= 163.5\nmse = 75625000000.0\nsamples = 2\nvalue = 1925000.0"] ;
372 -> 376 ;
377 [label="mse = 0.0\nsamples = 1\nvalue = 2200000.0"] ;
376 -> 377 ;
378 [label="mse = 0.0\nsamples = 1\nvalue = 1650000.0"] ;
376 -> 378 ;
379 [label="mse = 0.0\nsamples = 1\nvalue = 2840000.0"] ;
371 -> 379 ;
380 [label="BuildingArea <= 172.5\nmse = 418326269916.766\nsamples = 29\nvalue = 1235620.69"] ;
370 -> 380 ;
381 [label="BuildingArea <= 166.5\nmse = 68696932098.766\nsamples = 9\nvalue = 925388.889"] ;
380 -> 381 ;
382 [label="BuildingArea <= 165.75\nmse = 2809000000.0\nsamples = 2\nvalue = 1252000.0"] ;
381 -> 382 ;
383 [label="mse = 0.0\nsamples = 1\nvalue = 1199000.0"] ;
382 -> 383 ;
384 [label="mse = 0.0\nsamples = 1\nvalue = 1305000.0"] ;
382 -> 384 ;
385 [label="BuildingArea <= 170.5\nmse = 48335387755.102\nsamples = 7\nvalue = 832071.429"] ;
381 -> 385 ;
386 [label="BuildingArea <= 168.505\nmse = 7699340000.0\nsamples = 5\nvalue = 716400.0"] ;
385 -> 386 ;
387 [label="BuildingArea <= 167.505\nmse = 1387562500.0\nsamples = 2\nvalue = 645750.0"] ;
386 -> 387 ;
388 [label="mse = 0.0\nsamples = 1\nvalue = 683000.0"] ;
387 -> 388 ;
389 [label="mse = 0.0\nsamples = 1\nvalue = 608500.0"] ;
387 -> 389 ;
390 [label="BuildingArea <= 169.25\nmse = 6361166666.667\nsamples = 3\nvalue = 763500.0"] ;
386 -> 390 ;
391 [label="mse = 0.0\nsamples = 1\nvalue = 875000.0"] ;
390 -> 391 ;
392 [label="BuildingArea <= 169.75\nmse = 217562500.0\nsamples = 2\nvalue = 707750.0"] ;
390 -> 392 ;
393 [label="mse = 0.0\nsamples = 1\nvalue = 722500.0"] ;
392 -> 393 ;
394 [label="mse = 0.0\nsamples = 1\nvalue = 693000.0"] ;
392 -> 394 ;
395 [label="BuildingArea <= 171.5\nmse = 32851562500.0\nsamples = 2\nvalue = 1121250.0"] ;
385 -> 395 ;
396 [label="mse = 0.0\nsamples = 1\nvalue = 1302500.0"] ;
395 -> 396 ;
397 [label="mse = 0.0\nsamples = 1\nvalue = 940000.0"] ;
395 -> 397 ;
398 [label="BuildingArea <= 173.225\nmse = 512860411875.0\nsamples = 20\nvalue = 1375225.0"] ;
380 -> 398 ;
399 [label="mse = 0.0\nsamples = 1\nvalue = 2950000.0"] ;
398 -> 399 ;
400 [label="BuildingArea <= 183.42\nmse = 402461580332.41\nsamples = 19\nvalue = 1292342.105"] ;
398 -> 400 ;
401 [label="BuildingArea <= 182.95\nmse = 423491749023.438\nsamples = 16\nvalue = 1335281.25"] ;
400 -> 401 ;
402 [label="BuildingArea <= 181.3\nmse = 354593615555.555\nsamples = 15\nvalue = 1257366.667"] ;
401 -> 402 ;
403 [label="BuildingArea <= 180.95\nmse = 393317157024.793\nsamples = 11\nvalue = 1372545.455"] ;
402 -> 403 ;
404 [label="BuildingArea <= 180.28\nmse = 262842610000.0\nsamples = 10\nvalue = 1248300.0"] ;
403 -> 404 ;
405 [label="BuildingArea <= 179.5\nmse = 237419234375.0\nsamples = 8\nvalue = 1381625.0"] ;
404 -> 405 ;
406 [label="BuildingArea <= 178.27\nmse = 133636244897.959\nsamples = 7\nvalue = 1250428.571"] ;
405 -> 406 ;
407 [label="BuildingArea <= 177.4\nmse = 147146000000.0\nsamples = 5\nvalue = 1357000.0"] ;
406 -> 407 ;
408 [label="BuildingArea <= 175.5\nmse = 20579687500.0\nsamples = 4\nvalue = 1176250.0"] ;
407 -> 408 ;
409 [label="BuildingArea <= 174.225\nmse = 7225000000.0\nsamples = 2\nvalue = 1300000.0"] ;
408 -> 409 ;
410 [label="mse = 0.0\nsamples = 1\nvalue = 1385000.0"] ;
409 -> 410 ;
411 [label="mse = 0.0\nsamples = 1\nvalue = 1215000.0"] ;
409 -> 411 ;
412 [label="BuildingArea <= 176.5\nmse = 3306250000.0\nsamples = 2\nvalue = 1052500.0"] ;
408 -> 412 ;
413 [label="mse = 0.0\nsamples = 1\nvalue = 1110000.0"] ;
412 -> 413 ;
414 [label="mse = 0.0\nsamples = 1\nvalue = 995000.0"] ;
412 -> 414 ;
415 [label="mse = 0.0\nsamples = 1\nvalue = 2080000.0"] ;
407 -> 415 ;
416 [label="BuildingArea <= 178.87\nmse = 484000000.0\nsamples = 2\nvalue = 984000.0"] ;
406 -> 416 ;
417 [label="mse = 0.0\nsamples = 1\nvalue = 1006000.0"] ;
416 -> 417 ;
418 [label="mse = 0.0\nsamples = 1\nvalue = 962000.0"] ;
416 -> 418 ;
419 [label="mse = 0.0\nsamples = 1\nvalue = 2300000.0"] ;
405 -> 419 ;
420 [label="BuildingArea <= 180.73\nmse = 9025000000.0\nsamples = 2\nvalue = 715000.0"] ;
404 -> 420 ;
421 [label="mse = 0.0\nsamples = 1\nvalue = 620000.0"] ;
420 -> 421 ;
422 [label="mse = 0.0\nsamples = 1\nvalue = 810000.0"] ;
420 -> 422 ;
423 [label="mse = 0.0\nsamples = 1\nvalue = 2615000.0"] ;
403 -> 423 ;
424 [label="BuildingArea <= 182.875\nmse = 111296671875.0\nsamples = 4\nvalue = 940625.0"] ;
402 -> 424 ;
425 [label="BuildingArea <= 181.8\nmse = 95610500000.0\nsamples = 3\nvalue = 1055500.0"] ;
424 -> 425 ;
426 [label="mse = 0.0\nsamples = 1\nvalue = 650000.0"] ;
425 -> 426 ;
427 [label="BuildingArea <= 182.425\nmse = 20093062500.0\nsamples = 2\nvalue = 1258250.0"] ;
425 -> 427 ;
428 [label="mse = 0.0\nsamples = 1\nvalue = 1400000.0"] ;
427 -> 428 ;
429 [label="mse = 0.0\nsamples = 1\nvalue = 1116500.0"] ;
427 -> 429 ;
430 [label="mse = 0.0\nsamples = 1\nvalue = 596000.0"] ;
424 -> 430 ;
431 [label="mse = 0.0\nsamples = 1\nvalue = 2504000.0"] ;
401 -> 431 ;
432 [label="BuildingArea <= 183.985\nmse = 228022222222.222\nsamples = 3\nvalue = 1063333.333"] ;
400 -> 432 ;
433 [label="BuildingArea <= 183.905\nmse = 38025000000.0\nsamples = 2\nvalue = 745000.0"] ;
432 -> 433 ;
434 [label="mse = 0.0\nsamples = 1\nvalue = 940000.0"] ;
433 -> 434 ;
435 [label="mse = 0.0\nsamples = 1\nvalue = 550000.0"] ;
433 -> 435 ;
436 [label="mse = 0.0\nsamples = 1\nvalue = 1700000.0"] ;
432 -> 436 ;
437 [label="BuildingArea <= 185.5\nmse = 4977555555.556\nsamples = 3\nvalue = 792666.667"] ;
299 -> 437 ;
438 [label="BuildingArea <= 184.875\nmse = 4032250000.0\nsamples = 2\nvalue = 826500.0"] ;
437 -> 438 ;
439 [label="mse = 0.0\nsamples = 1\nvalue = 763000.0"] ;
438 -> 439 ;
440 [label="mse = 0.0\nsamples = 1\nvalue = 890000.0"] ;
438 -> 440 ;
441 [label="mse = 0.0\nsamples = 1\nvalue = 725000.0"] ;
437 -> 441 ;
442 [label="BuildingArea <= 301.0\nmse = 1195620063729.676\nsamples = 216\nvalue = 2062738.833"] ;
0 -> 442 [labeldistance=2.5, labelangle=-45, headlabel="False"] ;
443 [label="BuildingArea <= 235.5\nmse = 473814108196.814\nsamples = 103\nvalue = 1706332.039"] ;
442 -> 443 ;
444 [label="BuildingArea <= 186.68\nmse = 572161907269.491\nsamples = 53\nvalue = 1618290.566"] ;
443 -> 444 ;
445 [label="mse = 0.0\nsamples = 1\nvalue = 2600000.0"] ;
444 -> 445 ;
446 [label="BuildingArea <= 205.5\nmse = 564274883713.018\nsamples = 52\nvalue = 1599411.538"] ;
444 -> 446 ;
447 [label="BuildingArea <= 198.75\nmse = 449489579395.084\nsamples = 23\nvalue = 1498913.043"] ;
446 -> 447 ;
448 [label="BuildingArea <= 197.5\nmse = 515720666666.666\nsamples = 15\nvalue = 1626000.0"] ;
447 -> 448 ;
449 [label="BuildingArea <= 188.5\nmse = 437901530612.245\nsamples = 14\nvalue = 1538571.429"] ;
448 -> 449 ;
450 [label="BuildingArea <= 187.5\nmse = 6006250000.0\nsamples = 2\nvalue = 1152500.0"] ;
449 -> 450 ;
451 [label="mse = 0.0\nsamples = 1\nvalue = 1075000.0"] ;
450 -> 451 ;
452 [label="mse = 0.0\nsamples = 1\nvalue = 1230000.0"] ;
450 -> 452 ;
453 [label="BuildingArea <= 189.5\nmse = 480901909722.222\nsamples = 12\nvalue = 1602916.667"] ;
449 -> 453 ;
454 [label="mse = 0.0\nsamples = 1\nvalue = 2650000.0"] ;
453 -> 454 ;
455 [label="BuildingArea <= 192.5\nmse = 415888016528.926\nsamples = 11\nvalue = 1507727.273"] ;
453 -> 455 ;
456 [label="BuildingArea <= 191.5\nmse = 51800000000.0\nsamples = 3\nvalue = 1120000.0"] ;
455 -> 456 ;
457 [label="BuildingArea <= 190.5\nmse = 5625000000.0\nsamples = 2\nvalue = 1275000.0"] ;
456 -> 457 ;
458 [label="mse = 0.0\nsamples = 1\nvalue = 1350000.0"] ;
457 -> 458 ;
459 [label="mse = 0.0\nsamples = 1\nvalue = 1200000.0"] ;
457 -> 459 ;
460 [label="mse = 0.0\nsamples = 1\nvalue = 810000.0"] ;
456 -> 460 ;
461 [label="BuildingArea <= 193.87\nmse = 474905859375.0\nsamples = 8\nvalue = 1653125.0"] ;
455 -> 461 ;
462 [label="BuildingArea <= 193.37\nmse = 275625000000.0\nsamples = 2\nvalue = 2275000.0"] ;
461 -> 462 ;
463 [label="mse = 0.0\nsamples = 1\nvalue = 1750000.0"] ;
462 -> 463 ;
464 [label="mse = 0.0\nsamples = 1\nvalue = 2800000.0"] ;
462 -> 464 ;
465 [label="BuildingArea <= 195.548\nmse = 369453472222.222\nsamples = 6\nvalue = 1445833.333"] ;
461 -> 465 ;
466 [label="BuildingArea <= 194.5\nmse = 8466666666.667\nsamples = 3\nvalue = 1230000.0"] ;
465 -> 466 ;
467 [label="mse = 0.0\nsamples = 1\nvalue = 1300000.0"] ;
466 -> 467 ;
468 [label="BuildingArea <= 195.048\nmse = 9025000000.0\nsamples = 2\nvalue = 1195000.0"] ;
466 -> 468 ;
469 [label="mse = 0.0\nsamples = 1\nvalue = 1100000.0"] ;
468 -> 469 ;
470 [label="mse = 0.0\nsamples = 1\nvalue = 1290000.0"] ;
468 -> 470 ;
471 [label="BuildingArea <= 196.05\nmse = 637272222222.222\nsamples = 3\nvalue = 1661666.667"] ;
465 -> 471 ;
472 [label="mse = 0.0\nsamples = 1\nvalue = 2525000.0"] ;
471 -> 472 ;
473 [label="BuildingArea <= 196.55\nmse = 396900000000.0\nsamples = 2\nvalue = 1230000.0"] ;
471 -> 473 ;
474 [label="mse = 0.0\nsamples = 1\nvalue = 600000.0"] ;
473 -> 474 ;
475 [label="mse = 0.0\nsamples = 1\nvalue = 1860000.0"] ;
473 -> 475 ;
476 [label="mse = 0.0\nsamples = 1\nvalue = 2850000.0"] ;
448 -> 476 ;
477 [label="BuildingArea <= 199.75\nmse = 238241796875.0\nsamples = 8\nvalue = 1260625.0"] ;
447 -> 477 ;
478 [label="mse = 0.0\nsamples = 1\nvalue = 420000.0"] ;
477 -> 478 ;
479 [label="BuildingArea <= 200.355\nmse = 156904846938.776\nsamples = 7\nvalue = 1380714.286"] ;
477 -> 479 ;
480 [label="mse = 0.0\nsamples = 1\nvalue = 1800000.0"] ;
479 -> 480 ;
481 [label="BuildingArea <= 200.855\nmse = 148872222222.222\nsamples = 6\nvalue = 1310833.333"] ;
479 -> 481 ;
482 [label="mse = 0.0\nsamples = 1\nvalue = 590000.0"] ;
481 -> 482 ;
483 [label="BuildingArea <= 204.5\nmse = 53942500000.0\nsamples = 5\nvalue = 1455000.0"] ;
481 -> 483 ;
484 [label="BuildingArea <= 201.5\nmse = 39303125000.0\nsamples = 4\nvalue = 1530000.0"] ;
483 -> 484 ;
485 [label="mse = 0.0\nsamples = 1\nvalue = 1200000.0"] ;
484 -> 485 ;
486 [label="BuildingArea <= 202.5\nmse = 4004166666.667\nsamples = 3\nvalue = 1640000.0"] ;
484 -> 486 ;
487 [label="mse = 0.0\nsamples = 1\nvalue = 1562500.0"] ;
486 -> 487 ;
488 [label="BuildingArea <= 203.5\nmse = 1501562500.0\nsamples = 2\nvalue = 1678750.0"] ;
486 -> 488 ;
489 [label="mse = 0.0\nsamples = 1\nvalue = 1717500.0"] ;
488 -> 489 ;
490 [label="mse = 0.0\nsamples = 1\nvalue = 1640000.0"] ;
488 -> 490 ;
491 [label="mse = 0.0\nsamples = 1\nvalue = 1155000.0"] ;
483 -> 491 ;
492 [label="BuildingArea <= 207.5\nmse = 640948202116.528\nsamples = 29\nvalue = 1679117.241"] ;
446 -> 492 ;
493 [label="BuildingArea <= 206.5\nmse = 2153556250000.0\nsamples = 2\nvalue = 3267500.0"] ;
492 -> 493 ;
494 [label="mse = 0.0\nsamples = 1\nvalue = 1800000.0"] ;
493 -> 494 ;
495 [label="mse = 0.0\nsamples = 1\nvalue = 4735000.0"] ;
493 -> 495 ;
496 [label="BuildingArea <= 208.5\nmse = 328173850562.414\nsamples = 27\nvalue = 1561459.259"] ;
492 -> 496 ;
497 [label="mse = 0.0\nsamples = 1\nvalue = 856000.0"] ;
496 -> 497 ;
498 [label="BuildingArea <= 223.5\nmse = 320918459171.597\nsamples = 26\nvalue = 1588592.308"] ;
496 -> 498 ;
499 [label="BuildingArea <= 221.65\nmse = 208901373724.49\nsamples = 14\nvalue = 1712535.714"] ;
498 -> 499 ;
500 [label="BuildingArea <= 221.15\nmse = 126825366863.905\nsamples = 13\nvalue = 1628807.692"] ;
499 -> 500 ;
501 [label="BuildingArea <= 210.34\nmse = 110696588541.666\nsamples = 12\nvalue = 1674125.0"] ;
500 -> 501 ;
502 [label="BuildingArea <= 209.5\nmse = 12544000000.0\nsamples = 2\nvalue = 1988000.0"] ;
501 -> 502 ;
503 [label="mse = 0.0\nsamples = 1\nvalue = 2100000.0"] ;
502 -> 503 ;
504 [label="mse = 0.0\nsamples = 1\nvalue = 1876000.0"] ;
502 -> 504 ;
505 [label="BuildingArea <= 210.84\nmse = 106682902500.0\nsamples = 10\nvalue = 1611350.0"] ;
501 -> 505 ;
506 [label="mse = 0.0\nsamples = 1\nvalue = 950000.0"] ;
505 -> 506 ;
507 [label="BuildingArea <= 213.5\nmse = 64538555555.556\nsamples = 9\nvalue = 1684833.333"] ;
505 -> 507 ;
508 [label="BuildingArea <= 211.5\nmse = 58716666666.666\nsamples = 3\nvalue = 1540000.0"] ;
507 -> 508 ;
509 [label="mse = 0.0\nsamples = 1\nvalue = 1875000.0"] ;
508 -> 509 ;
510 [label="BuildingArea <= 212.5\nmse = 3906250000.0\nsamples = 2\nvalue = 1372500.0"] ;
508 -> 510 ;
511 [label="mse = 0.0\nsamples = 1\nvalue = 1435000.0"] ;
510 -> 511 ;
512 [label="mse = 0.0\nsamples = 1\nvalue = 1310000.0"] ;
510 -> 512 ;
513 [label="BuildingArea <= 214.5\nmse = 51716979166.666\nsamples = 6\nvalue = 1757250.0"] ;
507 -> 513 ;
514 [label="mse = 0.0\nsamples = 1\nvalue = 2205000.0"] ;
513 -> 514 ;
515 [label="BuildingArea <= 219.5\nmse = 13945160000.0\nsamples = 5\nvalue = 1667700.0"] ;
513 -> 515 ;
516 [label="BuildingArea <= 218.5\nmse = 17882166666.667\nsamples = 3\nvalue = 1634500.0"] ;
515 -> 516 ;
517 [label="BuildingArea <= 216.5\nmse = 7140250000.0\nsamples = 2\nvalue = 1715500.0"] ;
516 -> 517 ;
518 [label="mse = 0.0\nsamples = 1\nvalue = 1631000.0"] ;
517 -> 518 ;
519 [label="mse = 0.0\nsamples = 1\nvalue = 1800000.0"] ;
517 -> 519 ;
520 [label="mse = 0.0\nsamples = 1\nvalue = 1472500.0"] ;
516 -> 520 ;
521 [label="BuildingArea <= 220.5\nmse = 3906250000.0\nsamples = 2\nvalue = 1717500.0"] ;
515 -> 521 ;
522 [label="mse = 0.0\nsamples = 1\nvalue = 1780000.0"] ;
521 -> 522 ;
523 [label="mse = 0.0\nsamples = 1\nvalue = 1655000.0"] ;
521 -> 523 ;
524 [label="mse = 0.0\nsamples = 1\nvalue = 1085000.0"] ;
500 -> 524 ;
525 [label="mse = 0.0\nsamples = 1\nvalue = 2801000.0"] ;
499 -> 525 ;
526 [label="BuildingArea <= 225.75\nmse = 412773417430.555\nsamples = 12\nvalue = 1443991.667"] ;
498 -> 526 ;
527 [label="BuildingArea <= 225.25\nmse = 8100000000.0\nsamples = 2\nvalue = 750000.0"] ;
526 -> 527 ;
528 [label="mse = 0.0\nsamples = 1\nvalue = 840000.0"] ;
527 -> 528 ;
529 [label="mse = 0.0\nsamples = 1\nvalue = 660000.0"] ;
527 -> 529 ;
530 [label="BuildingArea <= 226.5\nmse = 378118236900.0\nsamples = 10\nvalue = 1582790.0"] ;
526 -> 530 ;
531 [label="mse = 0.0\nsamples = 1\nvalue = 2400000.0"] ;
530 -> 531 ;
532 [label="BuildingArea <= 227.8\nmse = 337682956543.21\nsamples = 9\nvalue = 1491988.889"] ;
530 -> 532 ;
533 [label="BuildingArea <= 227.3\nmse = 237656250000.0\nsamples = 2\nvalue = 1147500.0"] ;
532 -> 533 ;
534 [label="mse = 0.0\nsamples = 1\nvalue = 1635000.0"] ;
533 -> 534 ;
535 [label="mse = 0.0\nsamples = 1\nvalue = 660000.0"] ;
533 -> 535 ;
536 [label="BuildingArea <= 229.5\nmse = 322668001224.49\nsamples = 7\nvalue = 1590414.286"] ;
532 -> 536 ;
537 [label="BuildingArea <= 228.5\nmse = 323761000000.0\nsamples = 2\nvalue = 2231000.0"] ;
536 -> 537 ;
538 [label="mse = 0.0\nsamples = 1\nvalue = 1662000.0"] ;
537 -> 538 ;
539 [label="mse = 0.0\nsamples = 1\nvalue = 2800000.0"] ;
537 -> 539 ;
540 [label="BuildingArea <= 233.5\nmse = 92434769600.0\nsamples = 5\nvalue = 1334180.0"] ;
536 -> 540 ;
541 [label="BuildingArea <= 232.0\nmse = 69705555555.555\nsamples = 3\nvalue = 1441666.667"] ;
540 -> 541 ;
542 [label="BuildingArea <= 230.5\nmse = 25000000.0\nsamples = 2\nvalue = 1255000.0"] ;
541 -> 542 ;
543 [label="mse = 0.0\nsamples = 1\nvalue = 1260000.0"] ;
542 -> 543 ;
544 [label="mse = 0.0\nsamples = 1\nvalue = 1250000.0"] ;
542 -> 544 ;
545 [label="mse = 0.0\nsamples = 1\nvalue = 1815000.0"] ;
541 -> 545 ;
546 [label="BuildingArea <= 234.5\nmse = 83203402500.0\nsamples = 2\nvalue = 1172950.0"] ;
540 -> 546 ;
547 [label="mse = 0.0\nsamples = 1\nvalue = 884500.0"] ;
546 -> 547 ;
548 [label="mse = 0.0\nsamples = 1\nvalue = 1461400.0"] ;
546 -> 548 ;
549 [label="BuildingArea <= 297.605\nmse = 352639700464.0\nsamples = 50\nvalue = 1799656.0"] ;
443 -> 549 ;
550 [label="BuildingArea <= 296.5\nmse = 342041928745.659\nsamples = 48\nvalue = 1830047.917"] ;
549 -> 550 ;
551 [label="BuildingArea <= 254.5\nmse = 324443781412.404\nsamples = 47\nvalue = 1807282.979"] ;
550 -> 551 ;
552 [label="BuildingArea <= 253.5\nmse = 397708014933.334\nsamples = 15\nvalue = 1990120.0"] ;
551 -> 552 ;
553 [label="BuildingArea <= 241.5\nmse = 375918872040.816\nsamples = 14\nvalue = 1932271.429"] ;
552 -> 553 ;
554 [label="BuildingArea <= 240.5\nmse = 317996000000.0\nsamples = 5\nvalue = 2147000.0"] ;
553 -> 554 ;
555 [label="BuildingArea <= 239.0\nmse = 3392187500.0\nsamples = 4\nvalue = 1866250.0"] ;
554 -> 555 ;
556 [label="BuildingArea <= 236.5\nmse = 1938888888.889\nsamples = 3\nvalue = 1891666.667"] ;
555 -> 556 ;
557 [label="mse = 0.0\nsamples = 1\nvalue = 1930000.0"] ;
556 -> 557 ;
558 [label="BuildingArea <= 237.5\nmse = 1806250000.0\nsamples = 2\nvalue = 1872500.0"] ;
556 -> 558 ;
559 [label="mse = 0.0\nsamples = 1\nvalue = 1830000.0"] ;
558 -> 559 ;
560 [label="mse = 0.0\nsamples = 1\nvalue = 1915000.0"] ;
558 -> 560 ;
561 [label="mse = 0.0\nsamples = 1\nvalue = 1790000.0"] ;
555 -> 561 ;
562 [label="mse = 0.0\nsamples = 1\nvalue = 3270000.0"] ;
554 -> 562 ;
563 [label="BuildingArea <= 243.0\nmse = 368251515061.728\nsamples = 9\nvalue = 1812977.778"] ;
553 -> 563 ;
564 [label="mse = 0.0\nsamples = 1\nvalue = 520000.0"] ;
563 -> 564 ;
565 [label="BuildingArea <= 246.5\nmse = 179187270000.0\nsamples = 8\nvalue = 1974600.0"] ;
563 -> 565 ;
566 [label="BuildingArea <= 245.0\nmse = 102400000000.0\nsamples = 2\nvalue = 2320000.0"] ;
565 -> 566 ;
567 [label="mse = 0.0\nsamples = 1\nvalue = 2000000.0"] ;
566 -> 567 ;
568 [label="mse = 0.0\nsamples = 1\nvalue = 2640000.0"] ;
566 -> 568 ;
569 [label="BuildingArea <= 249.5\nmse = 151760288888.889\nsamples = 6\nvalue = 1859466.667"] ;
565 -> 569 ;
570 [label="BuildingArea <= 248.5\nmse = 106147875555.555\nsamples = 3\nvalue = 1546266.667"] ;
569 -> 570 ;
571 [label="BuildingArea <= 247.5\nmse = 93391360000.0\nsamples = 2\nvalue = 1694400.0"] ;
570 -> 571 ;
572 [label="mse = 0.0\nsamples = 1\nvalue = 1388800.0"] ;
571 -> 572 ;
573 [label="mse = 0.0\nsamples = 1\nvalue = 2000000.0"] ;
571 -> 573 ;
574 [label="mse = 0.0\nsamples = 1\nvalue = 1250000.0"] ;
570 -> 574 ;
575 [label="BuildingArea <= 251.0\nmse = 1184222222.224\nsamples = 3\nvalue = 2172666.667"] ;
569 -> 575 ;
576 [label="mse = 0.0\nsamples = 1\nvalue = 2205000.0"] ;
575 -> 576 ;
577 [label="BuildingArea <= 252.5\nmse = 992250000.0\nsamples = 2\nvalue = 2156500.0"] ;
575 -> 577 ;
578 [label="mse = 0.0\nsamples = 1\nvalue = 2125000.0"] ;
577 -> 578 ;
579 [label="mse = 0.0\nsamples = 1\nvalue = 2188000.0"] ;
577 -> 579 ;
580 [label="mse = 0.0\nsamples = 1\nvalue = 2800000.0"] ;
552 -> 580 ;
581 [label="BuildingArea <= 274.0\nmse = 267085829833.984\nsamples = 32\nvalue = 1721578.125"] ;
551 -> 581 ;
582 [label="BuildingArea <= 272.2\nmse = 211563661875.0\nsamples = 20\nvalue = 1636775.0"] ;
581 -> 582 ;
583 [label="BuildingArea <= 269.0\nmse = 195733790895.062\nsamples = 18\nvalue = 1678527.778"] ;
582 -> 583 ;
584 [label="BuildingArea <= 263.75\nmse = 214859895555.556\nsamples = 15\nvalue = 1624233.333"] ;
583 -> 584 ;
585 [label="BuildingArea <= 258.5\nmse = 166077687500.0\nsamples = 8\nvalue = 1750750.0"] ;
584 -> 585 ;
586 [label="BuildingArea <= 256.5\nmse = 6017187500.0\nsamples = 4\nvalue = 1463750.0"] ;
585 -> 586 ;
587 [label="BuildingArea <= 255.395\nmse = 4716666666.667\nsamples = 3\nvalue = 1435000.0"] ;
586 -> 587 ;
588 [label="mse = 0.0\nsamples = 1\nvalue = 1500000.0"] ;
587 -> 588 ;
589 [label="BuildingArea <= 255.895\nmse = 3906250000.0\nsamples = 2\nvalue = 1402500.0"] ;
587 -> 589 ;
590 [label="mse = 0.0\nsamples = 1\nvalue = 1340000.0"] ;
589 -> 590 ;
591 [label="mse = 0.0\nsamples = 1\nvalue = 1465000.0"] ;
589 -> 591 ;
592 [label="mse = 0.0\nsamples = 1\nvalue = 1550000.0"] ;
586 -> 592 ;
593 [label="BuildingArea <= 260.5\nmse = 161400187500.0\nsamples = 4\nvalue = 2037750.0"] ;
585 -> 593 ;
594 [label="mse = 0.0\nsamples = 1\nvalue = 2450000.0"] ;
593 -> 594 ;
595 [label="BuildingArea <= 262.0\nmse = 139666888888.889\nsamples = 3\nvalue = 1900333.333"] ;
593 -> 595 ;
596 [label="mse = 0.0\nsamples = 1\nvalue = 1401000.0"] ;
595 -> 596 ;
597 [label="BuildingArea <= 263.25\nmse = 22500000000.0\nsamples = 2\nvalue = 2150000.0"] ;
595 -> 597 ;
598 [label="mse = 0.0\nsamples = 1\nvalue = 2000000.0"] ;
597 -> 598 ;
599 [label="mse = 0.0\nsamples = 1\nvalue = 2300000.0"] ;
597 -> 599 ;
600 [label="BuildingArea <= 264.5\nmse = 231411479591.837\nsamples = 7\nvalue = 1479642.857"] ;
584 -> 600 ;
601 [label="mse = 0.0\nsamples = 1\nvalue = 802500.0"] ;
600 -> 601 ;
602 [label="BuildingArea <= 266.645\nmse = 180822916666.666\nsamples = 6\nvalue = 1592500.0"] ;
600 -> 602 ;
603 [label="BuildingArea <= 266.265\nmse = 254116666666.666\nsamples = 3\nvalue = 1810000.0"] ;
602 -> 603 ;
604 [label="BuildingArea <= 265.5\nmse = 18906250000.0\nsamples = 2\nvalue = 1462500.0"] ;
603 -> 604 ;
605 [label="mse = 0.0\nsamples = 1\nvalue = 1325000.0"] ;
604 -> 605 ;
606 [label="mse = 0.0\nsamples = 1\nvalue = 1600000.0"] ;
604 -> 606 ;
607 [label="mse = 0.0\nsamples = 1\nvalue = 2505000.0"] ;
603 -> 607 ;
608 [label="BuildingArea <= 267.5\nmse = 12916666666.667\nsamples = 3\nvalue = 1375000.0"] ;
602 -> 608 ;
609 [label="BuildingArea <= 266.88\nmse = 2500000000.0\nsamples = 2\nvalue = 1300000.0"] ;
608 -> 609 ;
610 [label="mse = 0.0\nsamples = 1\nvalue = 1350000.0"] ;
609 -> 610 ;
611 [label="mse = 0.0\nsamples = 1\nvalue = 1250000.0"] ;
609 -> 611 ;
612 [label="mse = 0.0\nsamples = 1\nvalue = 1525000.0"] ;
608 -> 612 ;
613 [label="BuildingArea <= 270.5\nmse = 11666666666.667\nsamples = 3\nvalue = 1950000.0"] ;
583 -> 613 ;
614 [label="mse = 0.0\nsamples = 1\nvalue = 1850000.0"] ;
613 -> 614 ;
615 [label="BuildingArea <= 271.5\nmse = 10000000000.0\nsamples = 2\nvalue = 2000000.0"] ;
613 -> 615 ;
616 [label="mse = 0.0\nsamples = 1\nvalue = 2100000.0"] ;
615 -> 616 ;
617 [label="mse = 0.0\nsamples = 1\nvalue = 1900000.0"] ;
615 -> 617 ;
618 [label="BuildingArea <= 272.7\nmse = 197136000000.0\nsamples = 2\nvalue = 1261000.0"] ;
582 -> 618 ;
619 [label="mse = 0.0\nsamples = 1\nvalue = 817000.0"] ;
618 -> 619 ;
620 [label="mse = 0.0\nsamples = 1\nvalue = 1705000.0"] ;
618 -> 620 ;
621 [label="BuildingArea <= 276.0\nmse = 327660243055.555\nsamples = 12\nvalue = 1862916.667"] ;
581 -> 621 ;
622 [label="mse = 0.0\nsamples = 1\nvalue = 3230000.0"] ;
621 -> 622 ;
623 [label="BuildingArea <= 282.0\nmse = 172100413223.141\nsamples = 11\nvalue = 1738636.364"] ;
621 -> 623 ;
624 [label="BuildingArea <= 279.5\nmse = 174688888888.889\nsamples = 3\nvalue = 1386666.667"] ;
623 -> 624 ;
625 [label="BuildingArea <= 277.5\nmse = 119025000000.0\nsamples = 2\nvalue = 1605000.0"] ;
624 -> 625 ;
626 [label="mse = 0.0\nsamples = 1\nvalue = 1260000.0"] ;
625 -> 626 ;
627 [label="mse = 0.0\nsamples = 1\nvalue = 1950000.0"] ;
625 -> 627 ;
628 [label="mse = 0.0\nsamples = 1\nvalue = 950000.0"] ;
624 -> 628 ;
629 [label="BuildingArea <= 294.5\nmse = 107252734375.0\nsamples = 8\nvalue = 1870625.0"] ;
623 -> 629 ;
630 [label="BuildingArea <= 292.5\nmse = 105790816326.531\nsamples = 7\nvalue = 1916428.571"] ;
629 -> 630 ;
631 [label="BuildingArea <= 287.5\nmse = 65970138888.889\nsamples = 6\nvalue = 1825833.333"] ;
630 -> 631 ;
632 [label="BuildingArea <= 286.5\nmse = 84918750000.0\nsamples = 4\nvalue = 1892500.0"] ;
631 -> 632 ;
633 [label="BuildingArea <= 285.0\nmse = 62600000000.0\nsamples = 3\nvalue = 1780000.0"] ;
632 -> 633 ;
634 [label="BuildingArea <= 283.5\nmse = 2025000000.0\nsamples = 2\nvalue = 1955000.0"] ;
633 -> 634 ;
635 [label="mse = 0.0\nsamples = 1\nvalue = 2000000.0"] ;
634 -> 635 ;
636 [label="mse = 0.0\nsamples = 1\nvalue = 1910000.0"] ;
634 -> 636 ;
637 [label="mse = 0.0\nsamples = 1\nvalue = 1430000.0"] ;
633 -> 637 ;
638 [label="mse = 0.0\nsamples = 1\nvalue = 2230000.0"] ;
632 -> 638 ;
639 [label="BuildingArea <= 290.0\nmse = 1406250000.0\nsamples = 2\nvalue = 1692500.0"] ;
631 -> 639 ;
640 [label="mse = 0.0\nsamples = 1\nvalue = 1655000.0"] ;
639 -> 640 ;
641 [label="mse = 0.0\nsamples = 1\nvalue = 1730000.0"] ;
639 -> 641 ;
642 [label="mse = 0.0\nsamples = 1\nvalue = 2460000.0"] ;
630 -> 642 ;
643 [label="mse = 0.0\nsamples = 1\nvalue = 1550000.0"] ;
629 -> 643 ;
644 [label="mse = 0.0\nsamples = 1\nvalue = 2900000.0"] ;
550 -> 644 ;
645 [label="BuildingArea <= 299.105\nmse = 52785062500.0\nsamples = 2\nvalue = 1070250.0"] ;
549 -> 645 ;
646 [label="mse = 0.0\nsamples = 1\nvalue = 840500.0"] ;
645 -> 646 ;
647 [label="mse = 0.0\nsamples = 1\nvalue = 1300000.0"] ;
645 -> 647 ;
648 [label="BuildingArea <= 525.5\nmse = 1632226645892.781\nsamples = 113\nvalue = 2387605.204"] ;
442 -> 648 ;
649 [label="BuildingArea <= 439.5\nmse = 1599274626415.842\nsamples = 89\nvalue = 2662217.843"] ;
648 -> 649 ;
650 [label="BuildingArea <= 372.5\nmse = 1076307523020.766\nsamples = 74\nvalue = 2492126.865"] ;
649 -> 650 ;
651 [label="BuildingArea <= 305.5\nmse = 868269965248.264\nsamples = 50\nvalue = 2345627.76"] ;
650 -> 651 ;
652 [label="BuildingArea <= 302.5\nmse = 310972222222.221\nsamples = 3\nvalue = 3133333.333"] ;
651 -> 652 ;
653 [label="mse = 0.0\nsamples = 1\nvalue = 2375000.0"] ;
652 -> 653 ;
654 [label="BuildingArea <= 304.0\nmse = 35156250000.0\nsamples = 2\nvalue = 3512500.0"] ;
652 -> 654 ;
655 [label="mse = 0.0\nsamples = 1\nvalue = 3325000.0"] ;
654 -> 655 ;
656 [label="mse = 0.0\nsamples = 1\nvalue = 3700000.0"] ;
654 -> 656 ;
657 [label="BuildingArea <= 310.5\nmse = 861709064943.878\nsamples = 47\nvalue = 2295348.681"] ;
651 -> 657 ;
658 [label="BuildingArea <= 308.5\nmse = 228535916666.666\nsamples = 6\nvalue = 1642500.0"] ;
657 -> 658 ;
659 [label="BuildingArea <= 307.5\nmse = 32660750000.0\nsamples = 4\nvalue = 1945500.0"] ;
658 -> 659 ;
660 [label="BuildingArea <= 306.095\nmse = 26560888888.889\nsamples = 3\nvalue = 2010666.667"] ;
659 -> 660 ;
661 [label="mse = 0.0\nsamples = 1\nvalue = 1782000.0"] ;
660 -> 661 ;
662 [label="BuildingArea <= 306.595\nmse = 625000000.0\nsamples = 2\nvalue = 2125000.0"] ;
660 -> 662 ;
663 [label="mse = 0.0\nsamples = 1\nvalue = 2100000.0"] ;
662 -> 663 ;
664 [label="mse = 0.0\nsamples = 1\nvalue = 2150000.0"] ;
662 -> 664 ;
665 [label="mse = 0.0\nsamples = 1\nvalue = 1750000.0"] ;
659 -> 665 ;
666 [label="BuildingArea <= 309.5\nmse = 69432250000.0\nsamples = 2\nvalue = 1036500.0"] ;
658 -> 666 ;
667 [label="mse = 0.0\nsamples = 1\nvalue = 773000.0"] ;
666 -> 667 ;
668 [label="mse = 0.0\nsamples = 1\nvalue = 1300000.0"] ;
666 -> 668 ;
669 [label="BuildingArea <= 312.5\nmse = 882868481750.006\nsamples = 41\nvalue = 2390887.512"] ;
657 -> 669 ;
670 [label="BuildingArea <= 311.5\nmse = 62500000000.0\nsamples = 2\nvalue = 4150000.0"] ;
669 -> 670 ;
671 [label="mse = 0.0\nsamples = 1\nvalue = 3900000.0"] ;
670 -> 671 ;
672 [label="mse = 0.0\nsamples = 1\nvalue = 4400000.0"] ;
670 -> 672 ;
673 [label="BuildingArea <= 321.5\nmse = 758109539282.492\nsamples = 39\nvalue = 2300676.615"] ;
669 -> 673 ;
674 [label="BuildingArea <= 316.0\nmse = 125037534722.222\nsamples = 6\nvalue = 1734083.333"] ;
673 -> 674 ;
675 [label="BuildingArea <= 313.5\nmse = 55138888888.888\nsamples = 3\nvalue = 2041666.667"] ;
674 -> 675 ;
676 [label="mse = 0.0\nsamples = 1\nvalue = 1750000.0"] ;
675 -> 676 ;
677 [label="BuildingArea <= 314.5\nmse = 18906250000.0\nsamples = 2\nvalue = 2187500.0"] ;
675 -> 677 ;
678 [label="mse = 0.0\nsamples = 1\nvalue = 2325000.0"] ;
677 -> 678 ;
679 [label="mse = 0.0\nsamples = 1\nvalue = 2050000.0"] ;
677 -> 679 ;
680 [label="BuildingArea <= 318.5\nmse = 5721166666.667\nsamples = 3\nvalue = 1426500.0"] ;
674 -> 680 ;
681 [label="mse = 0.0\nsamples = 1\nvalue = 1529500.0"] ;
680 -> 681 ;
682 [label="BuildingArea <= 320.5\nmse = 625000000.0\nsamples = 2\nvalue = 1375000.0"] ;
680 -> 682 ;
683 [label="mse = 0.0\nsamples = 1\nvalue = 1400000.0"] ;
682 -> 683 ;
684 [label="mse = 0.0\nsamples = 1\nvalue = 1350000.0"] ;
682 -> 684 ;
685 [label="BuildingArea <= 333.0\nmse = 804232328302.487\nsamples = 33\nvalue = 2403693.576"] ;
673 -> 685 ;
686 [label="BuildingArea <= 331.5\nmse = 1085935802469.136\nsamples = 9\nvalue = 2869444.444"] ;
685 -> 686 ;
687 [label="BuildingArea <= 328.5\nmse = 248577734375.0\nsamples = 8\nvalue = 2540625.0"] ;
686 -> 687 ;
688 [label="BuildingArea <= 324.5\nmse = 176753472222.223\nsamples = 6\nvalue = 2664166.667"] ;
687 -> 688 ;
689 [label="BuildingArea <= 322.5\nmse = 108888888888.89\nsamples = 3\nvalue = 2366666.667"] ;
688 -> 689 ;
690 [label="mse = 0.0\nsamples = 1\nvalue = 2600000.0"] ;
689 -> 690 ;
691 [label="BuildingArea <= 323.5\nmse = 122500000000.0\nsamples = 2\nvalue = 2250000.0"] ;
689 -> 691 ;
692 [label="mse = 0.0\nsamples = 1\nvalue = 1900000.0"] ;
691 -> 692 ;
693 [label="mse = 0.0\nsamples = 1\nvalue = 2600000.0"] ;
691 -> 693 ;
694 [label="BuildingArea <= 327.0\nmse = 67605555555.557\nsamples = 3\nvalue = 2961666.667"] ;
688 -> 694 ;
695 [label="BuildingArea <= 325.5\nmse = 3306250000.0\nsamples = 2\nvalue = 3142500.0"] ;
694 -> 695 ;
696 [label="mse = 0.0\nsamples = 1\nvalue = 3200000.0"] ;
695 -> 696 ;
697 [label="mse = 0.0\nsamples = 1\nvalue = 3085000.0"] ;
695 -> 697 ;
698 [label="mse = 0.0\nsamples = 1\nvalue = 2600000.0"] ;
694 -> 698 ;
699 [label="BuildingArea <= 330.0\nmse = 280900000000.0\nsamples = 2\nvalue = 2170000.0"] ;
687 -> 699 ;
700 [label="mse = 0.0\nsamples = 1\nvalue = 1640000.0"] ;
699 -> 700 ;
701 [label="mse = 0.0\nsamples = 1\nvalue = 2700000.0"] ;
699 -> 701 ;
702 [label="mse = 0.0\nsamples = 1\nvalue = 5500000.0"] ;
686 -> 702 ;
703 [label="BuildingArea <= 339.5\nmse = 586742154153.667\nsamples = 24\nvalue = 2229037.0"] ;
685 -> 703 ;
704 [label="BuildingArea <= 337.5\nmse = 113864345898.666\nsamples = 3\nvalue = 1486296.0"] ;
703 -> 704 ;
705 [label="BuildingArea <= 335.5\nmse = 653109136.0\nsamples = 2\nvalue = 1724444.0"] ;
704 -> 705 ;
706 [label="mse = 0.0\nsamples = 1\nvalue = 1750000.0"] ;
705 -> 706 ;
707 [label="mse = 0.0\nsamples = 1\nvalue = 1698888.0"] ;
705 -> 707 ;
708 [label="mse = 0.0\nsamples = 1\nvalue = 1010000.0"] ;
704 -> 708 ;
709 [label="BuildingArea <= 344.5\nmse = 564228503401.36\nsamples = 21\nvalue = 2335142.857"] ;
703 -> 709 ;
710 [label="BuildingArea <= 343.0\nmse = 275555555555.557\nsamples = 3\nvalue = 3016666.667"] ;
709 -> 710 ;
711 [label="BuildingArea <= 341.5\nmse = 10000000000.0\nsamples = 2\nvalue = 2650000.0"] ;
710 -> 711 ;
712 [label="mse = 0.0\nsamples = 1\nvalue = 2750000.0"] ;
711 -> 712 ;
713 [label="mse = 0.0\nsamples = 1\nvalue = 2550000.0"] ;
711 -> 713 ;
714 [label="mse = 0.0\nsamples = 1\nvalue = 3750000.0"] ;
710 -> 714 ;
715 [label="BuildingArea <= 345.5\nmse = 522026135802.47\nsamples = 18\nvalue = 2221555.556"] ;
709 -> 715 ;
716 [label="mse = 0.0\nsamples = 1\nvalue = 1200000.0"] ;
715 -> 716 ;
717 [label="BuildingArea <= 365.0\nmse = 487735757785.466\nsamples = 17\nvalue = 2281647.059"] ;
715 -> 717 ;
718 [label="BuildingArea <= 361.5\nmse = 477814888888.888\nsamples = 15\nvalue = 2346333.333"] ;
717 -> 718 ;
719 [label="BuildingArea <= 350.5\nmse = 479717187500.0\nsamples = 12\nvalue = 2208750.0"] ;
718 -> 719 ;
720 [label="BuildingArea <= 347.5\nmse = 368744000000.0\nsamples = 5\nvalue = 2536000.0"] ;
719 -> 720 ;
721 [label="BuildingArea <= 346.5\nmse = 308025000000.0\nsamples = 2\nvalue = 1995000.0"] ;
720 -> 721 ;
722 [label="mse = 0.0\nsamples = 1\nvalue = 2550000.0"] ;
721 -> 722 ;
723 [label="mse = 0.0\nsamples = 1\nvalue = 1440000.0"] ;
721 -> 723 ;
724 [label="BuildingArea <= 349.5\nmse = 84022222222.223\nsamples = 3\nvalue = 2896666.667"] ;
720 -> 724 ;
725 [label="BuildingArea <= 348.5\nmse = 10000000000.0\nsamples = 2\nvalue = 2700000.0"] ;
724 -> 725 ;
726 [label="mse = 0.0\nsamples = 1\nvalue = 2600000.0"] ;
725 -> 726 ;
727 [label="mse = 0.0\nsamples = 1\nvalue = 2800000.0"] ;
725 -> 727 ;
728 [label="mse = 0.0\nsamples = 1\nvalue = 3290000.0"] ;
724 -> 728 ;
729 [label="BuildingArea <= 353.0\nmse = 427850000000.0\nsamples = 7\nvalue = 1975000.0"] ;
719 -> 729 ;
730 [label="BuildingArea <= 351.5\nmse = 302500000000.0\nsamples = 2\nvalue = 1470000.0"] ;
729 -> 730 ;
731 [label="mse = 0.0\nsamples = 1\nvalue = 2020000.0"] ;
730 -> 731 ;
732 [label="mse = 0.0\nsamples = 1\nvalue = 920000.0"] ;
730 -> 732 ;
733 [label="BuildingArea <= 356.0\nmse = 335176000000.0\nsamples = 5\nvalue = 2177000.0"] ;
729 -> 733 ;
734 [label="BuildingArea <= 354.5\nmse = 6806250000.0\nsamples = 2\nvalue = 2492500.0"] ;
733 -> 734 ;
735 [label="mse = 0.0\nsamples = 1\nvalue = 2410000.0"] ;
734 -> 735 ;
736 [label="mse = 0.0\nsamples = 1\nvalue = 2575000.0"] ;
734 -> 736 ;
737 [label="BuildingArea <= 357.5\nmse = 443488888888.888\nsamples = 3\nvalue = 1966666.667"] ;
733 -> 737 ;
738 [label="mse = 0.0\nsamples = 1\nvalue = 1030000.0"] ;
737 -> 738 ;
739 [label="BuildingArea <= 359.5\nmse = 7225000000.0\nsamples = 2\nvalue = 2435000.0"] ;
737 -> 739 ;
740 [label="mse = 0.0\nsamples = 1\nvalue = 2350000.0"] ;
739 -> 740 ;
741 [label="mse = 0.0\nsamples = 1\nvalue = 2520000.0"] ;
739 -> 741 ;
742 [label="BuildingArea <= 363.5\nmse = 91622222222.223\nsamples = 3\nvalue = 2896666.667"] ;
718 -> 742 ;
743 [label="BuildingArea <= 362.5\nmse = 3025000000.0\nsamples = 2\nvalue = 2685000.0"] ;
742 -> 743 ;
744 [label="mse = 0.0\nsamples = 1\nvalue = 2630000.0"] ;
743 -> 744 ;
745 [label="mse = 0.0\nsamples = 1\nvalue = 2740000.0"] ;
743 -> 745 ;
746 [label="mse = 0.0\nsamples = 1\nvalue = 3320000.0"] ;
742 -> 746 ;
747 [label="BuildingArea <= 369.0\nmse = 295392250000.0\nsamples = 2\nvalue = 1796500.0"] ;
717 -> 747 ;
748 [label="mse = 0.0\nsamples = 1\nvalue = 1253000.0"] ;
747 -> 748 ;
749 [label="mse = 0.0\nsamples = 1\nvalue = 2340000.0"] ;
747 -> 749 ;
750 [label="BuildingArea <= 376.0\nmse = 1371855638888.888\nsamples = 24\nvalue = 2797333.333"] ;
650 -> 750 ;
751 [label="BuildingArea <= 373.5\nmse = 410555555555.559\nsamples = 3\nvalue = 4166666.667"] ;
750 -> 751 ;
752 [label="mse = 0.0\nsamples = 1\nvalue = 5050000.0"] ;
751 -> 752 ;
753 [label="BuildingArea <= 374.5\nmse = 30625000000.0\nsamples = 2\nvalue = 3725000.0"] ;
751 -> 753 ;
754 [label="mse = 0.0\nsamples = 1\nvalue = 3550000.0"] ;
753 -> 754 ;
755 [label="mse = 0.0\nsamples = 1\nvalue = 3900000.0"] ;
753 -> 755 ;
756 [label="BuildingArea <= 428.0\nmse = 1203049727891.155\nsamples = 21\nvalue = 2601714.286"] ;
750 -> 756 ;
757 [label="BuildingArea <= 391.5\nmse = 1088403385802.47\nsamples = 18\nvalue = 2777944.444"] ;
756 -> 757 ;
758 [label="BuildingArea <= 390.5\nmse = 501109440000.0\nsamples = 5\nvalue = 2044400.0"] ;
757 -> 758 ;
759 [label="BuildingArea <= 377.5\nmse = 252102000000.0\nsamples = 4\nvalue = 2318000.0"] ;
758 -> 759 ;
760 [label="mse = 0.0\nsamples = 1\nvalue = 1570000.0"] ;
759 -> 760 ;
761 [label="BuildingArea <= 379.0\nmse = 87467555555.555\nsamples = 3\nvalue = 2567333.333"] ;
759 -> 761 ;
762 [label="mse = 0.0\nsamples = 1\nvalue = 2800000.0"] ;
761 -> 762 ;
763 [label="BuildingArea <= 385.0\nmse = 90601000000.0\nsamples = 2\nvalue = 2451000.0"] ;
761 -> 763 ;
764 [label="mse = 0.0\nsamples = 1\nvalue = 2150000.0"] ;
763 -> 764 ;
765 [label="mse = 0.0\nsamples = 1\nvalue = 2752000.0"] ;
763 -> 765 ;
766 [label="mse = 0.0\nsamples = 1\nvalue = 950000.0"] ;
758 -> 766 ;
767 [label="BuildingArea <= 408.5\nmse = 1027730224852.072\nsamples = 13\nvalue = 3060076.923"] ;
757 -> 767 ;
768 [label="BuildingArea <= 399.5\nmse = 724025000000.0\nsamples = 6\nvalue = 3453000.0"] ;
767 -> 768 ;
769 [label="BuildingArea <= 395.0\nmse = 432534222222.222\nsamples = 3\nvalue = 2899333.333"] ;
768 -> 769 ;
770 [label="mse = 0.0\nsamples = 1\nvalue = 3800000.0"] ;
769 -> 770 ;
771 [label="BuildingArea <= 398.5\nmse = 40401000000.0\nsamples = 2\nvalue = 2449000.0"] ;
769 -> 771 ;
772 [label="mse = 0.0\nsamples = 1\nvalue = 2248000.0"] ;
771 -> 772 ;
773 [label="mse = 0.0\nsamples = 1\nvalue = 2650000.0"] ;
771 -> 773 ;
774 [label="BuildingArea <= 402.5\nmse = 402422222222.223\nsamples = 3\nvalue = 4006666.667"] ;
768 -> 774 ;
775 [label="mse = 0.0\nsamples = 1\nvalue = 4850000.0"] ;
774 -> 775 ;
776 [label="BuildingArea <= 406.0\nmse = 70225000000.0\nsamples = 2\nvalue = 3585000.0"] ;
774 -> 776 ;
777 [label="mse = 0.0\nsamples = 1\nvalue = 3850000.0"] ;
776 -> 777 ;
778 [label="mse = 0.0\nsamples = 1\nvalue = 3320000.0"] ;
776 -> 778 ;
779 [label="BuildingArea <= 410.5\nmse = 1042287632653.062\nsamples = 7\nvalue = 2723285.714"] ;
767 -> 779 ;
780 [label="mse = 0.0\nsamples = 1\nvalue = 915000.0"] ;
779 -> 780 ;
781 [label="BuildingArea <= 416.0\nmse = 580188888888.891\nsamples = 6\nvalue = 3024666.667"] ;
779 -> 781 ;
782 [label="BuildingArea <= 412.0\nmse = 1225000000.0\nsamples = 2\nvalue = 3435000.0"] ;
781 -> 782 ;
783 [label="mse = 0.0\nsamples = 1\nvalue = 3400000.0"] ;
782 -> 783 ;
784 [label="mse = 0.0\nsamples = 1\nvalue = 3470000.0"] ;
782 -> 784 ;
785 [label="BuildingArea <= 421.5\nmse = 743390750000.0\nsamples = 4\nvalue = 2819500.0"] ;
781 -> 785 ;
786 [label="mse = 0.0\nsamples = 1\nvalue = 2050000.0"] ;
785 -> 786 ;
787 [label="BuildingArea <= 425.0\nmse = 728018666666.666\nsamples = 3\nvalue = 3076000.0"] ;
785 -> 787 ;
788 [label="mse = 0.0\nsamples = 1\nvalue = 3800000.0"] ;
787 -> 788 ;
789 [label="BuildingArea <= 426.5\nmse = 698896000000.0\nsamples = 2\nvalue = 2714000.0"] ;
787 -> 789 ;
790 [label="mse = 0.0\nsamples = 1\nvalue = 1878000.0"] ;
789 -> 790 ;
791 [label="mse = 0.0\nsamples = 1\nvalue = 3550000.0"] ;
789 -> 791 ;
792 [label="BuildingArea <= 433.0\nmse = 586530888888.889\nsamples = 3\nvalue = 1544333.333"] ;
756 -> 792 ;
793 [label="BuildingArea <= 430.0\nmse = 298116000000.0\nsamples = 2\nvalue = 1104000.0"] ;
792 -> 793 ;
794 [label="mse = 0.0\nsamples = 1\nvalue = 1650000.0"] ;
793 -> 794 ;
795 [label="mse = 0.0\nsamples = 1\nvalue = 558000.0"] ;
793 -> 795 ;
796 [label="mse = 0.0\nsamples = 1\nvalue = 2425000.0"] ;
792 -> 796 ;
797 [label="BuildingArea <= 466.0\nmse = 3332404888888.888\nsamples = 15\nvalue = 3501333.333"] ;
649 -> 797 ;
798 [label="BuildingArea <= 458.65\nmse = 3729976000000.0\nsamples = 5\nvalue = 4362000.0"] ;
797 -> 798 ;
799 [label="BuildingArea <= 451.0\nmse = 543355555555.555\nsamples = 3\nvalue = 3253333.333"] ;
798 -> 799 ;
800 [label="BuildingArea <= 446.5\nmse = 60025000000.0\nsamples = 2\nvalue = 3755000.0"] ;
799 -> 800 ;
801 [label="mse = 0.0\nsamples = 1\nvalue = 3510000.0"] ;
800 -> 801 ;
802 [label="mse = 0.0\nsamples = 1\nvalue = 4000000.0"] ;
800 -> 802 ;
803 [label="mse = 0.0\nsamples = 1\nvalue = 2250000.0"] ;
799 -> 803 ;
804 [label="BuildingArea <= 464.65\nmse = 3900625000000.0\nsamples = 2\nvalue = 6025000.0"] ;
798 -> 804 ;
805 [label="mse = 0.0\nsamples = 1\nvalue = 8000000.0"] ;
804 -> 805 ;
806 [label="mse = 0.0\nsamples = 1\nvalue = 4050000.0"] ;
804 -> 806 ;
807 [label="BuildingArea <= 508.5\nmse = 2578059000000.0\nsamples = 10\nvalue = 3071000.0"] ;
797 -> 807 ;
808 [label="BuildingArea <= 495.5\nmse = 2435834693877.551\nsamples = 7\nvalue = 2562142.857"] ;
807 -> 808 ;
809 [label="BuildingArea <= 468.5\nmse = 2342695138888.888\nsamples = 6\nvalue = 2829166.667"] ;
808 -> 809 ;
810 [label="mse = 0.0\nsamples = 1\nvalue = 1005000.0"] ;
809 -> 810 ;
811 [label="BuildingArea <= 472.5\nmse = 2012614000000.0\nsamples = 5\nvalue = 3194000.0"] ;
809 -> 811 ;
812 [label="mse = 0.0\nsamples = 1\nvalue = 4750000.0"] ;
811 -> 812 ;
813 [label="BuildingArea <= 476.0\nmse = 1759162500000.0\nsamples = 4\nvalue = 2805000.0"] ;
811 -> 813 ;
814 [label="mse = 0.0\nsamples = 1\nvalue = 855000.0"] ;
813 -> 814 ;
815 [label="BuildingArea <= 484.0\nmse = 655550000000.0\nsamples = 3\nvalue = 3455000.0"] ;
813 -> 815 ;
816 [label="BuildingArea <= 477.5\nmse = 140625000000.0\nsamples = 2\nvalue = 2925000.0"] ;
815 -> 816 ;
817 [label="mse = 0.0\nsamples = 1\nvalue = 3300000.0"] ;
816 -> 817 ;
818 [label="mse = 0.0\nsamples = 1\nvalue = 2550000.0"] ;
816 -> 818 ;
819 [label="mse = 0.0\nsamples = 1\nvalue = 4515000.0"] ;
815 -> 819 ;
820 [label="mse = 0.0\nsamples = 1\nvalue = 960000.0"] ;
808 -> 820 ;
821 [label="BuildingArea <= 517.0\nmse = 895972222222.226\nsamples = 3\nvalue = 4258333.333"] ;
807 -> 821 ;
822 [label="mse = 0.0\nsamples = 1\nvalue = 5525000.0"] ;
821 -> 822 ;
823 [label="BuildingArea <= 519.0\nmse = 140625000000.0\nsamples = 2\nvalue = 3625000.0"] ;
821 -> 823 ;
824 [label="mse = 0.0\nsamples = 1\nvalue = 4000000.0"] ;
823 -> 824 ;
825 [label="mse = 0.0\nsamples = 1\nvalue = 3250000.0"] ;
823 -> 825 ;
826 [label="BuildingArea <= 583.5\nmse = 437723187500.0\nsamples = 24\nvalue = 1369250.0"] ;
648 -> 826 ;
827 [label="BuildingArea <= 550.0\nmse = 169135714285.714\nsamples = 7\nvalue = 900000.0"] ;
826 -> 827 ;
828 [label="BuildingArea <= 543.5\nmse = 267288888888.889\nsamples = 3\nvalue = 1123333.333"] ;
827 -> 828 ;
829 [label="BuildingArea <= 535.5\nmse = 4900000000.0\nsamples = 2\nvalue = 760000.0"] ;
828 -> 829 ;
830 [label="mse = 0.0\nsamples = 1\nvalue = 690000.0"] ;
829 -> 830 ;
831 [label="mse = 0.0\nsamples = 1\nvalue = 830000.0"] ;
829 -> 831 ;
832 [label="mse = 0.0\nsamples = 1\nvalue = 1850000.0"] ;
828 -> 832 ;
833 [label="BuildingArea <= 555.0\nmse = 30056250000.0\nsamples = 4\nvalue = 732500.0"] ;
827 -> 833 ;
834 [label="mse = 0.0\nsamples = 1\nvalue = 435000.0"] ;
833 -> 834 ;
835 [label="BuildingArea <= 559.0\nmse = 738888888.889\nsamples = 3\nvalue = 831666.667"] ;
833 -> 835 ;
836 [label="BuildingArea <= 557.5\nmse = 6250000.0\nsamples = 2\nvalue = 812500.0"] ;
835 -> 836 ;
837 [label="mse = 0.0\nsamples = 1\nvalue = 815000.0"] ;
836 -> 837 ;
838 [label="mse = 0.0\nsamples = 1\nvalue = 810000.0"] ;
836 -> 838 ;
839 [label="mse = 0.0\nsamples = 1\nvalue = 870000.0"] ;
835 -> 839 ;
840 [label="BuildingArea <= 2336.5\nmse = 420315072664.36\nsamples = 17\nvalue = 1562470.588"] ;
826 -> 840 ;
841 [label="BuildingArea <= 1031.5\nmse = 373993984375.0\nsamples = 16\nvalue = 1497125.0"] ;
840 -> 841 ;
842 [label="BuildingArea <= 621.5\nmse = 365145122448.979\nsamples = 14\nvalue = 1582857.143"] ;
841 -> 842 ;
843 [label="BuildingArea <= 615.5\nmse = 489905555555.555\nsamples = 3\nvalue = 1961666.667"] ;
842 -> 843 ;
844 [label="BuildingArea <= 610.0\nmse = 2256250000.0\nsamples = 2\nvalue = 1467500.0"] ;
843 -> 844 ;
845 [label="mse = 0.0\nsamples = 1\nvalue = 1420000.0"] ;
844 -> 845 ;
846 [label="mse = 0.0\nsamples = 1\nvalue = 1515000.0"] ;
844 -> 846 ;
847 [label="mse = 0.0\nsamples = 1\nvalue = 2950000.0"] ;
843 -> 847 ;
848 [label="BuildingArea <= 719.5\nmse = 281310793388.43\nsamples = 11\nvalue = 1479545.455"] ;
842 -> 848 ;
849 [label="BuildingArea <= 672.5\nmse = 320163061224.49\nsamples = 7\nvalue = 1301714.286"] ;
848 -> 849 ;
850 [label="BuildingArea <= 661.0\nmse = 408104666666.666\nsamples = 3\nvalue = 1517000.0"] ;
849 -> 850 ;
851 [label="BuildingArea <= 637.5\nmse = 27390250000.0\nsamples = 2\nvalue = 1075500.0"] ;
850 -> 851 ;
852 [label="mse = 0.0\nsamples = 1\nvalue = 1241000.0"] ;
851 -> 852 ;
853 [label="mse = 0.0\nsamples = 1\nvalue = 910000.0"] ;
851 -> 853 ;
854 [label="mse = 0.0\nsamples = 1\nvalue = 2400000.0"] ;
850 -> 854 ;
855 [label="BuildingArea <= 676.5\nmse = 193375187500.0\nsamples = 4\nvalue = 1140250.0"] ;
849 -> 855 ;
856 [label="mse = 0.0\nsamples = 1\nvalue = 591000.0"] ;
855 -> 856 ;
857 [label="BuildingArea <= 690.0\nmse = 123755555555.556\nsamples = 3\nvalue = 1323333.333"] ;
855 -> 857 ;
858 [label="mse = 0.0\nsamples = 1\nvalue = 1820000.0"] ;
857 -> 858 ;
859 [label="BuildingArea <= 709.5\nmse = 625000000.0\nsamples = 2\nvalue = 1075000.0"] ;
857 -> 859 ;
860 [label="mse = 0.0\nsamples = 1\nvalue = 1100000.0"] ;
859 -> 860 ;
861 [label="mse = 0.0\nsamples = 1\nvalue = 1050000.0"] ;
859 -> 861 ;
862 [label="BuildingArea <= 800.0\nmse = 61129187500.0\nsamples = 4\nvalue = 1790750.0"] ;
848 -> 862 ;
863 [label="BuildingArea <= 756.0\nmse = 72361000000.0\nsamples = 2\nvalue = 1634000.0"] ;
862 -> 863 ;
864 [label="mse = 0.0\nsamples = 1\nvalue = 1903000.0"] ;
863 -> 864 ;
865 [label="mse = 0.0\nsamples = 1\nvalue = 1365000.0"] ;
863 -> 865 ;
866 [label="BuildingArea <= 915.0\nmse = 756250000.0\nsamples = 2\nvalue = 1947500.0"] ;
862 -> 866 ;
867 [label="mse = 0.0\nsamples = 1\nvalue = 1920000.0"] ;
866 -> 867 ;
868 [label="mse = 0.0\nsamples = 1\nvalue = 1975000.0"] ;
866 -> 868 ;
869 [label="BuildingArea <= 1301.0\nmse = 24336000000.0\nsamples = 2\nvalue = 897000.0"] ;
841 -> 869 ;
870 [label="mse = 0.0\nsamples = 1\nvalue = 1053000.0"] ;
869 -> 870 ;
871 [label="mse = 0.0\nsamples = 1\nvalue = 741000.0"] ;
869 -> 871 ;
872 [label="mse = 0.0\nsamples = 1\nvalue = 2608000.0"] ;
840 -> 872 ;
}